svm_type c_svc
kernel_type rbf
gamma 0.0078125
nr_class 3
total_sv 2463
rho -13.8302 -7.9767 -6.07036
label 0 1 2
nr_sv 1688 664 111
SV
0.1816344794157918 0 101:1 293:1 468:1 640:1 834:1 1010:1 1178:1 1353:1 1575:1 1807:1 1999:1 2173:1 2358:1 2567:1 2818:1 3048:1 3240:1 3424:1 3620:1 3825:1 4015:1 4202:1 4428:1 4663:1 4854:1 5039:1 5236:1 5481:1 5705:1 5898:1 6081:1 6307:1 6543:1 6776:1 6983:1 7175:1 7374:1 7603:1 7815:1 8002:1 8199:1 8421:1 8615:1 8817:1 9009:1 9195:1 9406:1 9629:1 9839:1 10024:1 10206:1 10418:1 10642:1 10837:1 11012:1 11190:1 11386:1 11586:1 11761:1 11933:1 12099:1 12263:1 12447:1 12624:1 12791:1 12978:1 13168:1 13368:1 13542:1 13724:1 13951:1 14183:1 14377:1 14553:1 14740:1 14961:1 
0.2081424275903867 0.02335508961823034 189:1 379:1 565:1 778:1 1017:1 1234:1 1422:1 1619:1 1830:1 2040:1 2221:1 2394:1 2588:1 2806:1 3007:1 3187:1 3384:1 3610:1 3819:1 4004:1 4198:1 4429:1 4663:1 4862:1 5057:1 5302:1 5559:1 5776:1 5967:1 6165:1 6386:1 6624:1 6827:1 7038:1 7270:1 7475:1 7675:1 7895:1 8116:1 8318:1 8506:1 8703:1 8922:1 9123:1 9309:1 9491:1 9671:1 9839:1 10011:1 10185:1 10362:1 10559:1 10780:1 11007:1 11191:1 11363:1 11538:1 11729:1 11934:1 12117:1 12290:1 12472:1 12730:1 12972:1 13187:1 13365:1 13536:1 13721:1 13932:1 14121:1 14298:1 14500:1 14744:1 14987:1 
0.2334036584625342 0.2342795854409777 164:1 334:1 500:1 668:1 875:1 1056:1 1235:1 1450:1 1661:1 1859:1 2034:1 2205:1 2381:1 2572:1 2768:1 2944:1 3126:1 3314:1 3521:1 3707:1 3886:1 4124:1 4365:1 4565:1 4743:1 4925:1 5140:1 5386:1 5608:1 5793:1 5980:1 6176:1 6361:1 6529:1 6698:1 6863:1 7055:1 7294:1 7506:1 7716:1 7947:1 8198:1 8454:1 8667:1 8851:1 9030:1 9225:1 9425:1 9623:1 9889:1 10166:1 10410:1 10606:1 10796:1 10987:1 11158:1 11337:1 11576:1 11819:1 12021:1 12219:1 12437:1 12682:1 12902:1 13098:1 13292:1 13489:1 13669:1 13847:1 14038:1 14216:1 14483:1 14725:1 14931:1 
0.390724375840406 0 135:1 350:1 547:1 726:1 912:1 1129:1 1372:1 1603:1 1800:1 1996:1 2211:1 2437:1 2634:1 2819:1 3017:1 3279:1 3508:1 3693:1 3872:1 4067:1 4316:1 4544:1 4731:1 4914:1 5113:1 5329:1 5517:1 5689:1 5857:1 6020:1 6193:1 6398:1 6589:1 6771:1 6970:1 7204:1 7425:1 7615:1 7791:1 7981:1 8189:1 8385:1 8567:1 8769:1 9002:1 9211:1 9397:1 9593:1 9802:1 10010:1 10198:1 10389:1 10596:1 10787:1 10964:1 11157:1 11360:1 11560:1 11740:1 11949:1 12172:1 12373:1 12550:1 12733:1 12936:1 13134:1 13318:1 13509:1 13706:1 13878:1 14045:1 14213:1 14376:1 14537:1 14718:1 14887:1 
0.8971704400870895 0 121:1 308:1 489:1 696:1 945:1 1144:1 1330:1 1560:1 1803:1 2008:1 2205:1 2435:1 2659:1 2874:1 3077:1 3280:1 3510:1 3733:1 3936:1 4125:1 4330:1 4573:1 4782:1 4968:1 5163:1 5396:1 5629:1 5820:1 6011:1 6251:1 6501:1 6734:1 6934:1 7121:1 7351:1 7589:1 7787:1 7968:1 8155:1 8392:1 8587:1 8765:1 8943:1 9111:1 9290:1 9532:1 9742:1 9920:1 10100:1 10307:1 10520:1 10710:1 10902:1 11110:1 11324:1 11509:1 11683:1 11874:1 12091:1 12298:1 12484:1 12695:1 12943:1 13167:1 13347:1 13525:1 13738:1 13947:1 14130:1 14321:1 14558:1 14783:1 14988:1 
0.8345177904570105 0.08984359040630033 211:1 453:1 693:1 895:1 1084:1 1288:1 1515:1 1706:1 1901:1 2107:1 2321:1 2510:1 2721:1 2913:1 3094:1 3303:1 3518:1 3716:1 3890:1 4066:1 4289:1 4515:1 4720:1 4903:1 5091:1 5311:1 5543:1 5741:1 5923:1 6113:1 6339:1 6572:1 6774:1 6977:1 7203:1 7426:1 7646:1 7841:1 8036:1 8251:1 8502:1 8740:1 8938:1 9119:1 9311:1 9554:1 9772:1 9959:1 10143:1 10339:1 10516:1 10703:1 10962:1 11180:1 11389:1 11612:1 11810:1 11990:1 12179:1 12418:1 12656:1 12849:1 13030:1 13230:1 13478:1 13714:1 13912:1 14101:1 14310:1 14553:1 14788:1 14982:1 
1.022542567786753 0.3702895639577349 165:1 421:1 669:1 869:1 1042:1 1214:1 1466:1 1711:1 1914:1 2101:1 2302:1 2523:1 2734:1 2922:1 3120:1 3355:1 3599:1 3792:1 3973:1 4163:1 4392:1 4601:1 4790:1 4992:1 5215:1 5445:1 5646:1 5839:1 6027:1 6224:1 6408:1 6579:1 6753:1 6937:1 7114:1 7380:1 7621:1 7816:1 8009:1 8241:1 8502:1 8739:1 8932:1 9116:1 9314:1 9562:1 9805:1 10001:1 10190:1 10398:1 10635:1 10862:1 11058:1 11263:1 11543:1 11815:1 12026:1 12206:1 12386:1 12584:1 12817:1 13032:1 13298:1 13520:1 13736:1 13980:1 14208:1 14403:1 14608:1 14882:1 
0.8688940777730741 0.0503729732306198 134:1 340:1 531:1 756:1 1010:1 1209:1 1397:1 1632:1 1906:1 2152:1 2341:1 2520:1 2728:1 2967:1 3179:1 3374:1 3583:1 3870:1 4100:1 4285:1 4467:1 4671:1 4917:1 5146:1 5340:1 5530:1 5780:1 6050:1 6272:1 6456:1 6639:1 6863:1 7101:1 7297:1 7486:1 7685:1 7866:1 8040:1 8244:1 8431:1 8613:1 8827:1 9061:1 9293:1 9490:1 9671:1 9864:1 10123:1 10373:1 10584:1 10761:1 10932:1 11122:1 11352:1 11539:1 11712:1 11916:1 12158:1 12371:1 12554:1 12732:1 12903:1 13082:1 13282:1 13466:1 13716:1 13947:1 14133:1 14317:1 14524:1 14714:1 14886:1 
0.518000949620272 0.08221987189284112 117:1 313:1 490:1 669:1 904:1 1136:1 1337:1 1511:1 1680:1 1844:1 2007:1 2186:1 2377:1 2546:1 2734:1 2989:1 3241:1 3477:1 3670:1 3852:1 4038:1 4214:1 4384:1 4609:1 4807:1 5003:1 5234:1 5479:1 5673:1 5858:1 6060:1 6256:1 6433:1 6612:1 6823:1 7074:1 7316:1 7512:1 7697:1 7895:1 8107:1 8335:1 8530:1 8724:1 8948:1 9199:1 9423:1 9608:1 9794:1 9997:1 10202:1 10383:1 10577:1 10794:1 11002:1 11189:1 11387:1 11572:1 11748:1 11916:1 12085:1 12260:1 12459:1 12680:1 12901:1 13097:1 13280:1 13472:1 13676:1 13889:1 14083:1 14278:1 14476:1 14676:1 14859:1 
0.3666304320151773 0.08790642920358083 173:1 350:1 531:1 783:1 1025:1 1214:1 1394:1 1602:1 1834:1 2048:1 2237:1 2424:1 2620:1 2835:1 3040:1 3225:1 3434:1 3663:1 3895:1 4109:1 4301:1 4488:1 4696:1 4926:1 5165:1 5364:1 5545:1 5728:1 5925:1 6122:1 6305:1 6490:1 6695:1 6882:1 7059:1 7266:1 7449:1 7621:1 7798:1 7994:1 8204:1 8390:1 8570:1 8767:1 8982:1 9184:1 9368:1 9552:1 9771:1 9998:1 10198:1 10393:1 10604:1 10827:1 11017:1 11200:1 11396:1 11606:1 11802:1 11989:1 12208:1 12460:1 12693:1 12889:1 13073:1 13259:1 13448:1 13626:1 13806:1 13983:1 14160:1 14362:1 14594:1 14843:1 
0.03646770883806172 0 47:1 231:1 424:1 620:1 808:1 980:1 1154:1 1343:1 1550:1 1743:1 1915:1 2084:1 2264:1 2438:1 2607:1 2809:1 2989:1 3167:1 3366:1 3567:1 3753:1 3954:1 4190:1 4431:1 4628:1 4814:1 5008:1 5249:1 5460:1 5650:1 5850:1 6094:1 6356:1 6592:1 6783:1 6978:1 7199:1 7452:1 7676:1 7858:1 8033:1 8210:1 8412:1 8637:1 8831:1 9025:1 9235:1 9445:1 9628:1 9804:1 9980:1 10175:1 10366:1 10535:1 10700:1 10858:1 11023:1 11208:1 11383:1 11551:1 11726:1 11910:1 12107:1 12292:1 12464:1 12642:1 12820:1 12986:1 13146:1 13304:1 13462:1 13627:1 13824:1 14021:1 14196:1 14370:1 14557:1 14762:1 14953:1 
0.03611513727883069 0.2381412980058803 33:1 223:1 399:1 585:1 817:1 1015:1 1195:1 1375:1 1551:1 1733:1 1956:1 2145:1 2326:1 2522:1 2736:1 2925:1 3109:1 3330:1 3564:1 3763:1 3954:1 4162:1 4385:1 4590:1 4778:1 4971:1 5176:1 5388:1 5580:1 5781:1 6014:1 6247:1 6447:1 6635:1 6858:1 7123:1 7365:1 7553:1 7732:1 7920:1 8094:1 8266:1 8506:1 8705:1 8910:1 9123:1 9332:1 9519:1 9712:1 9928:1 10153:1 10343:1 10534:1 10758:1 10995:1 11190:1 11384:1 11602:1 11836:1 12039:1 12231:1 12440:1 12670:1 12877:1 13064:1 13258:1 13482:1 13697:1 13885:1 14073:1 14281:1 14503:1 14696:1 14889:1 
0.6334822429317729 0.07112973484489872 98:1 305:1 501:1 678:1 857:1 1050:1 1244:1 1420:1 1599:1 1805:1 2034:1 2243:1 2434:1 2628:1 2842:1 3075:1 3299:1 3510:1 3723:1 3940:1 4136:1 4318:1 4516:1 4741:1 4970:1 5168:1 5360:1 5569:1 5813:1 6036:1 6236:1 6439:1 6678:1 6879:1 7066:1 7275:1 7515:1 7725:1 7912:1 8105:1 8323:1 8534:1 8727:1 8945:1 9177:1 9404:1 9596:1 9782:1 9976:1 10178:1 10361:1 10545:1 10776:1 11011:1 11202:1 11392:1 11609:1 11829:1 12024:1 12224:1 12445:1 12652:1 12835:1 13016:1 13204:1 13381:1 13556:1 13764:1 13954:1 14169:1 14404:1 14615:1 14795:1 14974:1 
1.109831889319322 0.3510884902673582 170:1 371:1 550:1 735:1 957:1 1176:1 1364:1 1560:1 1771:1 1980:1 2178:1 2357:1 2538:1 2739:1 2962:1 3160:1 3354:1 3567:1 3796:1 3998:1 4192:1 4400:1 4618:1 4822:1 5018:1 5222:1 5442:1 5640:1 5835:1 6046:1 6268:1 6464:1 6664:1 6895:1 7119:1 7310:1 7490:1 7691:1 7918:1 8127:1 8332:1 8563:1 8820:1 9056:1 9264:1 9467:1 9653:1 9831:1 10090:1 10299:1 10498:1 10702:1 10924:1 11119:1 11313:1 11534:1 11771:1 11997:1 12208:1 12432:1 12660:1 12887:1 13102:1 13326:1 13556:1 13790:1 14012:1 14222:1 14439:1 14672:1 14901:1 
0.2389195367791537 0 116:1 336:1 565:1 793:1 1004:1 1212:1 1425:1 1646:1 1854:1 2063:1 2296:1 2526:1 2735:1 2941:1 3173:1 3396:1 3599:1 3802:1 4029:1 4252:1 4453:1 4660:1 4895:1 5126:1 5341:1 5544:1 5740:1 5965:1 6156:1 6340:1 6539:1 6760:1 6954:1 7143:1 7355:1 7557:1 7742:1 7924:1 8123:1 8328:1 8515:1 8705:1 8881:1 9053:1 9230:1 9395:1 9566:1 9755:1 9958:1 10133:1 10305:1 10484:1 10675:1 10851:1 11022:1 11207:1 11407:1 11598:1 11771:1 11946:1 12135:1 12311:1 12481:1 12665:1 12840:1 13012:1 13203:1 13414:1 13609:1 13782:1 13954:1 14147:1 14351:1 14531:1 14703:1 14888:1 
0.2774407235638284 0 165:1 346:1 547:1 781:1 991:1 1175:1 1370:1 1585:1 1805:1 1995:1 2185:1 2388:1 2592:1 2776:1 2965:1 3176:1 3394:1 3596:1 3806:1 4033:1 4256:1 4450:1 4651:1 4866:1 5080:1 5274:1 5475:1 5716:1 5952:1 6157:1 6358:1 6565:1 6785:1 6983:1 7174:1 7372:1 7578:1 7770:1 7978:1 8230:1 8469:1 8672:1 8875:1 9079:1 9290:1 9482:1 9667:1 9859:1 10078:1 10297:1 10486:1 10678:1 10891:1 11098:1 11281:1 11461:1 11645:1 11818:1 11987:1 12201:1 12389:1 12575:1 12771:1 12983:1 13173:1 13356:1 13555:1 13763:1 13951:1 14132:1 14327:1 14535:1 14732:1 14917:1 
0.3306549505294434 0.08003640280207737 118:1 342:1 569:1 790:1 980:1 1166:1 1385:1 1613:1 1841:1 2038:1 2222:1 2403:1 2588:1 2761:1 2946:1 3127:1 3315:1 3591:1 3853:1 4063:1 4248:1 4445:1 4675:1 4903:1 5105:1 5303:1 5514:1 5749:1 5983:1 6205:1 6410:1 6606:1 6803:1 7017:1 7213:1 7409:1 7610:1 7815:1 8002:1 8184:1 8363:1 8542:1 8738:1 8955:1 9145:1 9333:1 9539:1 9742:1 9922:1 10103:1 10290:1 10486:1 10665:1 10856:1 11097:1 11325:1 11519:1 11705:1 11905:1 12108:1 12289:1 12478:1 12700:1 12921:1 13117:1 13326:1 13553:1 13770:1 13959:1 14143:1 14362:1 14613:1 14847:1 
0.2022182005651543 0 34:1 214:1 387:1 563:1 750:1 932:1 1104:1 1286:1 1503:1 1716:1 1899:1 2079:1 2265:1 2455:1 2633:1 2811:1 3012:1 3232:1 3425:1 3608:1 3813:1 4013:1 4192:1 4367:1 4572:1 4791:1 4977:1 5162:1 5355:1 5572:1 5768:1 5949:1 6138:1 6345:1 6577:1 6777:1 6998:1 7232:1 7456:1 7650:1 7854:1 8054:1 8235:1 8408:1 8588:1 8803:1 9030:1 9233:1 9474:1 9741:1 9970:1 10174:1 10382:1 10602:1 10800:1 10988:1 11191:1 11411:1 11610:1 11792:1 11964:1 12131:1 12319:1 12578:1 12792:1 13000:1 13218:1 13416:1 13598:1 13787:1 14026:1 14259:1 14473:1 14667:1 14873:1 
0.3514326183758009 0.01260551871645193 107:1 326:1 516:1 684:1 851:1 1017:1 1230:1 1444:1 1638:1 1863:1 2098:1 2333:1 2534:1 2729:1 2951:1 3177:1 3370:1 3551:1 3745:1 3991:1 4228:1 4442:1 4652:1 4871:1 5101:1 5305:1 5502:1 5717:1 5941:1 6143:1 6338:1 6548:1 6781:1 7010:1 7216:1 7419:1 7635:1 7853:1 8065:1 8246:1 8428:1 8632:1 8845:1 9043:1 9225:1 9425:1 9630:1 9820:1 10011:1 10207:1 10423:1 10650:1 10844:1 11026:1 11212:1 11413:1 11647:1 11859:1 12048:1 12234:1 12421:1 12618:1 12800:1 12976:1 13153:1 13370:1 13624:1 13858:1 14049:1 14231:1 14414:1 14641:1 14865:1 
0.3766930277262204 0.1455770858233436 50:1 227:1 416:1 688:1 928:1 1122:1 1320:1 1549:1 1793:1 2002:1 2185:1 2382:1 2638:1 2897:1 3116:1 3294:1 3470:1 3682:1 3958:1 4187:1 4375:1 4571:1 4793:1 4987:1 5162:1 5346:1 5580:1 5828:1 6030:1 6208:1 6376:1 6538:1 6722:1 6936:1 7120:1 7302:1 7503:1 7727:1 7920:1 8100:1 8291:1 8502:1 8712:1 8897:1 9078:1 9278:1 9497:1 9694:1 9883:1 10089:1 10318:1 10531:1 10716:1 10896:1 11099:1 11339:1 11564:1 11764:1 11963:1 12172:1 12385:1 12607:1 12802:1 13006:1 13223:1 13443:1 13631:1 13811:1 13992:1 14189:1 14366:1 14537:1 14716:1 14917:1 
0.1697864560991623 0 142:1 378:1 567:1 735:1 897:1 1064:1 1259:1 1464:1 1644:1 1820:1 2009:1 2221:1 2434:1 2618:1 2795:1 2970:1 3137:1 3302:1 3497:1 3676:1 3846:1 4028:1 4233:1 4460:1 4651:1 4831:1 5021:1 5253:1 5471:1 5655:1 5833:1 6020:1 6241:1 6450:1 6634:1 6820:1 7031:1 7245:1 7435:1 7628:1 7829:1 8037:1 8222:1 8400:1 8594:1 8853:1 9077:1 9261:1 9440:1 9646:1 9875:1 10072:1 10271:1 10477:1 10695:1 10886:1 11073:1 11271:1 11468:1 11646:1 11813:1 11977:1 12174:1 12430:1 12655:1 12846:1 13048:1 13276:1 13505:1 13693:1 13864:1 14029:1 14190:1 14400:1 14628:1 14834:1 
0.1426440856675515 0 49:1 274:1 500:1 719:1 927:1 1136:1 1349:1 1565:1 1757:1 1942:1 2128:1 2338:1 2546:1 2731:1 2917:1 3122:1 3361:1 3583:1 3772:1 3954:1 4153:1 4390:1 4621:1 4828:1 5027:1 5233:1 5469:1 5676:1 5856:1 6032:1 6221:1 6397:1 6567:1 6749:1 6924:1 7136:1 7379:1 7575:1 7765:1 7963:1 8171:1 8376:1 8558:1 8742:1 8955:1 9193:1 9398:1 9592:1 9791:1 9996:1 10176:1 10361:1 10561:1 10783:1 10973:1 11166:1 11368:1 11565:1 11746:1 11934:1 12138:1 12343:1 12526:1 12713:1 12906:1 13089:1 13260:1 13435:1 13620:1 13810:1 13986:1 14168:1 14365:1 14579:1 14767:1 14940:1 
0.9453846777374013 0 63:1 272:1 511:1 736:1 940:1 1141:1 1361:1 1598:1 1802:1 2001:1 2234:1 2467:1 2693:1 2914:1 3144:1 3376:1 3603:1 3813:1 4008:1 4219:1 4445:1 4651:1 4840:1 5047:1 5284:1 5517:1 5715:1 5896:1 6068:1 6232:1 6398:1 6637:1 6842:1 7017:1 7192:1 7393:1 7604:1 7791:1 7967:1 8150:1 8358:1 8580:1 8770:1 8953:1 9150:1 9353:1 9560:1 9747:1 9926:1 10131:1 10347:1 10548:1 10736:1 10937:1 11169:1 11380:1 11561:1 11742:1 11937:1 12145:1 12344:1 12520:1 12697:1 12889:1 13066:1 13242:1 13420:1 13599:1 13828:1 14036:1 14254:1 14483:1 14710:1 14896:1 
0.3498487011234588 0 124:1 319:1 540:1 767:1 967:1 1177:1 1418:1 1639:1 1831:1 2025:1 2232:1 2419:1 2595:1 2774:1 2984:1 3181:1 3365:1 3566:1 3776:1 3960:1 4137:1 4332:1 4562:1 4759:1 4937:1 5120:1 5311:1 5497:1 5684:1 5864:1 6031:1 6220:1 6445:1 6636:1 6824:1 7019:1 7205:1 7380:1 7564:1 7765:1 7952:1 8135:1 8341:1 8551:1 8732:1 8905:1 9079:1 9265:1 9486:1 9680:1 9876:1 10095:1 10312:1 10498:1 10670:1 10845:1 11017:1 11215:1 11419:1 11599:1 11793:1 12006:1 12205:1 12386:1 12576:1 12807:1 13002:1 13191:1 13401:1 13606:1 13793:1 13993:1 14216:1 14420:1 14605:1 14818:1 
0.5071196842464425 0.1134412495038974 175:1 372:1 577:1 769:1 951:1 1157:1 1356:1 1607:1 1857:1 2063:1 2272:1 2494:1 2711:1 2904:1 3101:1 3377:1 3638:1 3849:1 4059:1 4278:1 4489:1 4688:1 4915:1 5152:1 5392:1 5612:1 5832:1 6056:1 6275:1 6484:1 6695:1 6913:1 7133:1 7338:1 7538:1 7749:1 7971:1 8177:1 8379:1 8596:1 8816:1 9025:1 9230:1 9442:1 9656:1 9859:1 10052:1 10252:1 10452:1 10634:1 10826:1 11026:1 11205:1 11378:1 11571:1 11746:1 11939:1 12161:1 12357:1 12537:1 12728:1 12927:1 13121:1 13304:1 13497:1 13724:1 13941:1 14133:1 14328:1 14526:1 14749:1 14943:1 
0.9665427212250594 0.2262294753141475 149:1 377:1 604:1 812:1 1031:1 1253:1 1471:1 1679:1 1898:1 2119:1 2335:1 2540:1 2757:1 2982:1 3198:1 3405:1 3622:1 3834:1 4026:1 4205:1 4407:1 4634:1 4839:1 5032:1 5256:1 5482:1 5694:1 5899:1 6123:1 6349:1 6550:1 6744:1 6952:1 7172:1 7371:1 7560:1 7768:1 8006:1 8220:1 8415:1 8614:1 8852:1 9078:1 9287:1 9494:1 9708:1 9919:1 10114:1 10303:1 10516:1 10750:1 10960:1 11176:1 11386:1 11587:1 11772:1 11967:1 12216:1 12437:1 12633:1 12827:1 13035:1 13265:1 13458:1 13652:1 13878:1 14113:1 14334:1 14531:1 14734:1 14940:1 
0.04857767271723555 0 136:1 315:1 512:1 760:1 981:1 1179:1 1385:1 1606:1 1825:1 2018:1 2220:1 2438:1 2661:1 2861:1 3065:1 3279:1 3498:1 3696:1 3894:1 4117:1 4331:1 4525:1 4723:1 4937:1 5154:1 5346:1 5547:1 5769:1 5978:1 6164:1 6356:1 6563:1 6767:1 6956:1 7159:1 7377:1 7581:1 7762:1 7949:1 8146:1 8354:1 8531:1 8709:1 8906:1 9129:1 9321:1 9513:1 9709:1 9898:1 10076:1 10255:1 10435:1 10610:1 10777:1 10952:1 11133:1 11338:1 11523:1 11710:1 11911:1 12129:1 12322:1 12513:1 12701:1 12895:1 13074:1 13244:1 13426:1 13648:1 13873:1 14059:1 14239:1 14422:1 14622:1 14805:1 14983:1 
0.4032057012828097 0.2804908390771125 179:1 389:1 637:1 855:1 1074:1 1317:1 1536:1 1720:1 1905:1 2113:1 2299:1 2515:1 2730:1 2942:1 3138:1 3363:1 3619:1 3836:1 4023:1 4220:1 4432:1 4627:1 4810:1 4999:1 5212:1 5459:1 5659:1 5861:1 6085:1 6311:1 6498:1 6672:1 6844:1 7009:1 7178:1 7400:1 7586:1 7774:1 8008:1 8250:1 8440:1 8620:1 8817:1 9047:1 9253:1 9441:1 9672:1 9929:1 10149:1 10341:1 10539:1 10764:1 11010:1 11221:1 11428:1 11650:1 11894:1 12134:1 12335:1 12533:1 12740:1 12959:1 13149:1 13327:1 13529:1 13741:1 13932:1 14121:1 14347:1 14586:1 14796:1 14986:1 
0.2726691137316673 0.222447490466941 185:1 415:1 621:1 806:1 1016:1 1260:1 1495:1 1692:1 1883:1 2091:1 2318:1 2530:1 2714:1 2899:1 3119:1 3344:1 3540:1 3723:1 3934:1 4156:1 4350:1 4526:1 4711:1 4943:1 5165:1 5359:1 5566:1 5784:1 5986:1 6173:1 6372:1 6615:1 6861:1 7066:1 7247:1 7449:1 7680:1 7891:1 8068:1 8243:1 8435:1 8645:1 8833:1 9023:1 9236:1 9447:1 9640:1 9835:1 10049:1 10271:1 10464:1 10643:1 10821:1 11004:1 11187:1 11366:1 11574:1 11796:1 12018:1 12211:1 12418:1 12628:1 12833:1 13019:1 13193:1 13373:1 13576:1 13779:1 13963:1 14159:1 14380:1 14601:1 14796:1 14981:1 
0.06936112622648617 0 70:1 260:1 470:1 698:1 896:1 1092:1 1296:1 1507:1 1698:1 1893:1 2120:1 2346:1 2545:1 2743:1 2943:1 3153:1 3356:1 3542:1 3722:1 3891:1 4066:1 4323:1 4538:1 4727:1 4910:1 5096:1 5268:1 5435:1 5615:1 5825:1 6025:1 6213:1 6420:1 6644:1 6846:1 7035:1 7233:1 7439:1 7627:1 7819:1 8028:1 8252:1 8445:1 8648:1 8861:1 9057:1 9243:1 9453:1 9684:1 9892:1 10084:1 10291:1 10506:1 10703:1 10901:1 11117:1 11327:1 11516:1 11706:1 11913:1 12118:1 12302:1 12499:1 12726:1 12951:1 13144:1 13334:1 13538:1 13739:1 13922:1 14120:1 14340:1 14537:1 14726:1 14922:1 
0.04939788335262565 0 119:1 301:1 491:1 736:1 976:1 1189:1 1385:1 1588:1 1793:1 1986:1 2182:1 2393:1 2613:1 2809:1 3001:1 3215:1 3457:1 3685:1 3894:1 4098:1 4307:1 4510:1 4688:1 4863:1 5072:1 5334:1 5565:1 5759:1 5953:1 6177:1 6407:1 6627:1 6805:1 6973:1 7151:1 7323:1 7486:1 7653:1 7830:1 7995:1 8172:1 8374:1 8613:1 8805:1 8979:1 9159:1 9371:1 9584:1 9763:1 9935:1 10119:1 10335:1 10549:1 10733:1 10914:1 11118:1 11328:1 11515:1 11690:1 11861:1 12026:1 12199:1 12417:1 12603:1 12794:1 13010:1 13245:1 13449:1 13639:1 13823:1 13994:1 14166:1 14332:1 14490:1 14648:1 14802:1 14959:1 
0.6477974211604073 0.3044955775863971 60:1 246:1 453:1 678:1 879:1 1069:1 1274:1 1492:1 1678:1 1871:1 2080:1 2294:1 2481:1 2676:1 2879:1 3072:1 3254:1 3456:1 3674:1 3864:1 4055:1 4245:1 4436:1 4617:1 4832:1 5057:1 5263:1 5452:1 5648:1 5861:1 6045:1 6232:1 6428:1 6632:1 6814:1 7013:1 7272:1 7506:1 7700:1 7906:1 8142:1 8373:1 8579:1 8816:1 9066:1 9306:1 9505:1 9711:1 9937:1 10185:1 10388:1 10598:1 10855:1 11094:1 11291:1 11495:1 11760:1 12004:1 12200:1 12411:1 12655:1 12856:1 13045:1 13241:1 13441:1 13631:1 13829:1 14058:1 14316:1 14526:1 14730:1 14967:1 
1.20214984471449 0.3027319554634042 43:1 278:1 482:1 670:1 865:1 1090:1 1306:1 1497:1 1697:1 1930:1 2179:1 2391:1 2572:1 2750:1 2953:1 3179:1 3371:1 3566:1 3816:1 4068:1 4263:1 4453:1 4649:1 4855:1 5048:1 5245:1 5486:1 5758:1 6013:1 6237:1 6447:1 6690:1 6929:1 7119:1 7295:1 7478:1 7708:1 7965:1 8179:1 8417:1 8680:1 8916:1 9105:1 9290:1 9493:1 9734:1 9933:1 10130:1 10332:1 10516:1 10690:1 10879:1 11098:1 11309:1 11491:1 11674:1 11877:1 12131:1 12374:1 12579:1 12767:1 12982:1 13211:1 13423:1 13615:1 13838:1 14109:1 14374:1 14633:1 14848:1 
0.1990246129997581 0 24:1 234:1 422:1 609:1 811:1 1049:1 1301:1 1504:1 1694:1 1899:1 2111:1 2325:1 2544:1 2734:1 2921:1 3117:1 3343:1 3571:1 3765:1 3941:1 4126:1 4300:1 4472:1 4655:1 4922:1 5166:1 5353:1 5527:1 5715:1 5926:1 6156:1 6354:1 6534:1 6708:1 6882:1 7057:1 7223:1 7385:1 7546:1 7719:1 7929:1 8153:1 8341:1 8523:1 8718:1 8928:1 9134:1 9316:1 9495:1 9685:1 9900:1 10095:1 10274:1 10468:1 10690:1 10934:1 11127:1 11303:1 11480:1 11691:1 11916:1 12107:1 12296:1 12495:1 12730:1 12946:1 13128:1 13308:1 13516:1 13730:1 13928:1 14106:1 14284:1 14486:1 14697:1 14894:1 
0.5062317621027628 0.09488081408107817 165:1 399:1 609:1 791:1 971:1 1179:1 1378:1 1563:1 1766:1 1961:1 2141:1 2338:1 2529:1 2713:1 2922:1 3136:1 3320:1 3498:1 3689:1 3923:1 4120:1 4298:1 4476:1 4685:1 4935:1 5156:1 5390:1 5627:1 5841:1 6031:1 6234:1 6452:1 6675:1 6871:1 7069:1 7286:1 7524:1 7721:1 7912:1 8118:1 8335:1 8526:1 8719:1 8956:1 9197:1 9404:1 9591:1 9787:1 9996:1 10216:1 10408:1 10599:1 10828:1 11059:1 11256:1 11439:1 11628:1 11827:1 12026:1 12206:1 12392:1 12622:1 12852:1 13049:1 13243:1 13455:1 13689:1 13885:1 14080:1 14300:1 14546:1 14753:1 14948:1 
0.7987676246143729 0.1132571003673923 150:1 362:1 556:1 743:1 948:1 1173:1 1369:1 1547:1 1719:1 1896:1 2065:1 2240:1 2438:1 2618:1 2822:1 3055:1 3293:1 3484:1 3665:1 3859:1 4114:1 4338:1 4524:1 4714:1 4953:1 5219:1 5435:1 5644:1 5874:1 6106:1 6314:1 6528:1 6753:1 6978:1 7171:1 7366:1 7581:1 7823:1 8025:1 8217:1 8432:1 8668:1 8882:1 9073:1 9274:1 9497:1 9725:1 9921:1 10101:1 10289:1 10508:1 10730:1 10921:1 11107:1 11301:1 11496:1 11676:1 11853:1 12044:1 12256:1 12496:1 12710:1 12924:1 13173:1 13408:1 13609:1 13790:1 13978:1 14185:1 14447:1 14680:1 14870:1 
0.09191005945734089 0 154:1 333:1 499:1 662:1 828:1 1005:1 1187:1 1351:1 1512:1 1673:1 1843:1 2011:1 2170:1 2328:1 2488:1 2656:1 2838:1 3034:1 3219:1 3389:1 3547:1 3707:1 3867:1 4036:1 4240:1 4431:1 4608:1 4800:1 5000:1 5186:1 5368:1 5569:1 5756:1 5935:1 6127:1 6320:1 6505:1 6724:1 6960:1 7166:1 7357:1 7564:1 7794:1 7996:1 8198:1 8400:1 8584:1 8787:1 9033:1 9273:1 9485:1 9708:1 9957:1 10170:1 10371:1 10586:1 10784:1 10976:1 11196:1 11440:1 11644:1 11845:1 12085:1 12301:1 12494:1 12713:1 12961:1 13163:1 13369:1 13600:1 13797:1 14003:1 14255:1 14480:1 14674:1 14887:1 
1.379735859407385 0.3278887171199723 133:1 347:1 547:1 782:1 1047:1 1287:1 1487:1 1692:1 1916:1 2115:1 2325:1 2526:1 2716:1 2918:1 3132:1 3338:1 3561:1 3755:1 3956:1 4180:1 4389:1 4580:1 4778:1 4971:1 5148:1 5338:1 5572:1 5808:1 6017:1 6226:1 6456:1 6701:1 6950:1 7159:1 7351:1 7568:1 7822:1 8029:1 8234:1 8513:1 8777:1 9000:1 9223:1 9446:1 9635:1 9838:1 10096:1 10338:1 10537:1 10739:1 10960:1 11199:1 11404:1 11590:1 11787:1 11969:1 12145:1 12379:1 12568:1 12758:1 13023:1 13246:1 13434:1 13634:1 13845:1 14042:1 14231:1 14451:1 14718:1 14968:1 
0.5670007550941839 0.1271598537219616 176:1 393:1 625:1 860:1 1061:1 1263:1 1507:1 1761:1 1975:1 2182:1 2418:1 2637:1 2833:1 3094:1 3359:1 3583:1 3770:1 3961:1 4178:1 4422:1 4627:1 4822:1 5034:1 5227:1 5436:1 5692:1 5923:1 6118:1 6334:1 6593:1 6819:1 7028:1 7266:1 7506:1 7724:1 7955:1 8160:1 8356:1 8557:1 8742:1 8936:1 9148:1 9340:1 9537:1 9732:1 9926:1 10117:1 10299:1 10483:1 10683:1 10866:1 11051:1 11225:1 11390:1 11553:1 11718:1 11879:1 12041:1 12214:1 12395:1 12561:1 12729:1 12915:1 13110:1 13284:1 13453:1 13630:1 13820:1 13999:1 14170:1 14354:1 14580:1 14793:1 14978:1 
0.5891510865202471 0 172:1 394:1 619:1 815:1 1014:1 1236:1 1449:1 1644:1 1868:1 2105:1 2345:1 2564:1 2792:1 3023:1 3240:1 3447:1 3651:1 3875:1 4102:1 4301:1 4502:1 4691:1 4878:1 5086:1 5370:1 5606:1 5802:1 6012:1 6231:1 6436:1 6629:1 6837:1 7031:1 7216:1 7444:1 7644:1 7880:1 8096:1 8295:1 8488:1 8671:1 8862:1 9060:1 9243:1 9429:1 9626:1 9852:1 10048:1 10234:1 10424:1 10606:1 10797:1 10989:1 11179:1 11382:1 11604:1 11810:1 12005:1 12186:1 12362:1 12532:1 12705:1 12905:1 13104:1 13292:1 13492:1 13704:1 13910:1 14130:1 14324:1 14508:1 14711:1 14898:1 
0.7945572426794181 0.1589277170379042 121:1 381:1 648:1 877:1 1102:1 1325:1 1520:1 1721:1 1937:1 2163:1 2369:1 2577:1 2780:1 2966:1 3170:1 3405:1 3646:1 3847:1 4046:1 4255:1 4476:1 4686:1 4887:1 5106:1 5343:1 5560:1 5778:1 6000:1 6194:1 6387:1 6611:1 6845:1 7060:1 7275:1 7474:1 7659:1 7855:1 8071:1 8277:1 8459:1 8643:1 8856:1 9076:1 9265:1 9452:1 9651:1 9837:1 10008:1 10185:1 10373:1 10552:1 10738:1 10969:1 11207:1 11415:1 11592:1 11772:1 11963:1 12188:1 12387:1 12589:1 12813:1 13016:1 13200:1 13395:1 13592:1 13790:1 14053:1 14312:1 14545:1 14760:1 14956:1 
0.3352042650072661 0 30:1 232:1 440:1 669:1 908:1 1124:1 1309:1 1509:1 1731:1 1932:1 2118:1 2339:1 2590:1 2817:1 3015:1 3216:1 3438:1 3678:1 3894:1 4101:1 4322:1 4558:1 4774:1 4963:1 5172:1 5405:1 5636:1 5839:1 6054:1 6282:1 6502:1 6687:1 6869:1 7056:1 7263:1 7452:1 7677:1 7944:1 8201:1 8447:1 8650:1 8840:1 9036:1 9246:1 9458:1 9641:1 9825:1 10017:1 10201:1 10386:1 10606:1 10824:1 11034:1 11218:1 11399:1 11599:1 11801:1 11995:1 12174:1 12350:1 12521:1 12693:1 12860:1 13025:1 13198:1 13378:1 13565:1 13763:1 13945:1 14134:1 14334:1 14546:1 14738:1 14926:1 
1.025501840047764 0.1609217324204529 135:1 348:1 546:1 729:1 920:1 1121:1 1329:1 1523:1 1723:1 1917:1 2094:1 2262:1 2434:1 2619:1 2790:1 2957:1 3140:1 3340:1 3533:1 3707:1 3892:1 4102:1 4311:1 4500:1 4707:1 4933:1 5141:1 5323:1 5509:1 5709:1 5924:1 6122:1 6339:1 6584:1 6797:1 6988:1 7228:1 7461:1 7667:1 7873:1 8097:1 8329:1 8539:1 8750:1 8970:1 9196:1 9406:1 9620:1 9847:1 10076:1 10290:1 10500:1 10719:1 10950:1 11173:1 11376:1 11578:1 11789:1 12020:1 12227:1 12439:1 12673:1 12904:1 13109:1 13303:1 13522:1 13759:1 13977:1 14185:1 14413:1 14652:1 14886:1 
0.2579842401493109 0 142:1 326:1 496:1 679:1 888:1 1105:1 1297:1 1498:1 1711:1 1904:1 2078:1 2267:1 2486:1 2684:1 2877:1 3084:1 3304:1 3500:1 3731:1 3959:1 4161:1 4358:1 4584:1 4831:1 5047:1 5258:1 5479:1 5695:1 5885:1 6079:1 6308:1 6529:1 6721:1 6952:1 7186:1 7392:1 7571:1 7768:1 7988:1 8191:1 8387:1 8595:1 8830:1 9027:1 9206:1 9405:1 9613:1 9841:1 10046:1 10284:1 10517:1 10721:1 10905:1 11100:1 11319:1 11519:1 11703:1 11903:1 12125:1 12325:1 12517:1 12716:1 12899:1 13074:1 13252:1 13453:1 13642:1 13826:1 14018:1 14220:1 14400:1 14578:1 14760:1 14939:1 
0.9304722800671661 0.3453891410349532 8:1 221:1 428:1 720:1 1004:1 1229:1 1451:1 1655:1 1853:1 2077:1 2360:1 2600:1 2845:1 3066:1 3281:1 3496:1 3722:1 3986:1 4208:1 4431:1 4639:1 4835:1 5108:1 5340:1 5556:1 5789:1 6027:1 6230:1 6445:1 6662:1 6863:1 7095:1 7303:1 7515:1 7762:1 7968:1 8173:1 8396:1 8595:1 8805:1 9043:1 9256:1 9460:1 9661:1 9856:1 10055:1 10247:1 10430:1 10610:1 10782:1 10955:1 11141:1 11327:1 11526:1 11754:1 11974:1 12166:1 12369:1 12568:1 12744:1 12918:1 13087:1 13263:1 13448:1 13638:1 13822:1 14005:1 14194:1 14379:1 14550:1 14715:1 14874:1 
0.6206513240936258 0.1218365035650044 72:1 242:1 413:1 588:1 753:1 954:1 1143:1 1340:1 1529:1 1703:1 1881:1 2052:1 2240:1 2449:1 2636:1 2840:1 3072:1 3271:1 3463:1 3671:1 3871:1 4052:1 4239:1 4462:1 4667:1 4861:1 5080:1 5307:1 5498:1 5699:1 5930:1 6137:1 6325:1 6520:1 6738:1 6946:1 7151:1 7389:1 7636:1 7854:1 8053:1 8273:1 8500:1 8709:1 8974:1 9242:1 9454:1 9636:1 9825:1 10047:1 10247:1 10457:1 10695:1 10935:1 11138:1 11360:1 11607:1 11817:1 12002:1 12207:1 12442:1 12641:1 12850:1 13089:1 13356:1 13579:1 13805:1 14043:1 14248:1 14440:1 14641:1 14830:1 
0.2053555838895829 0 27:1 215:1 451:1 701:1 913:1 1123:1 1307:1 1501:1 1754:1 1957:1 2160:1 2367:1 2591:1 2803:1 3007:1 3254:1 3503:1 3706:1 3897:1 4081:1 4269:1 4468:1 4657:1 4873:1 5102:1 5340:1 5544:1 5742:1 5947:1 6145:1 6341:1 6526:1 6699:1 6888:1 7078:1 7250:1 7424:1 7602:1 7782:1 7954:1 8133:1 8307:1 8481:1 8658:1 8840:1 9013:1 9191:1 9368:1 9539:1 9711:1 9876:1 10038:1 10213:1 10378:1 10555:1 10750:1 10929:1 11100:1 11286:1 11496:1 11681:1 11862:1 12063:1 12252:1 12433:1 12638:1 12854:1 13097:1 13298:1 13491:1 13701:1 13940:1 14155:1 14354:1 14574:1 14842:1 
0.690004783647962 0 81:1 300:1 520:1 757:1 956:1 1148:1 1376:1 1582:1 1851:1 2126:1 2364:1 2593:1 2813:1 3015:1 3210:1 3402:1 3589:1 3777:1 4042:1 4265:1 4468:1 4701:1 4942:1 5161:1 5369:1 5559:1 5748:1 5968:1 6199:1 6396:1 6588:1 6800:1 6998:1 7189:1 7393:1 7578:1 7754:1 7947:1 8143:1 8336:1 8532:1 8765:1 8991:1 9187:1 9379:1 9557:1 9736:1 9926:1 10101:1 10279:1 10452:1 10631:1 10850:1 11038:1 11232:1 11421:1 11602:1 11807:1 12035:1 12256:1 12455:1 12637:1 12814:1 13005:1 13192:1 13370:1 13572:1 13803:1 14004:1 14195:1 14390:1 14582:1 14762:1 14947:1 
0.6288658147888512 0 137:1 327:1 513:1 708:1 893:1 1064:1 1242:1 1421:1 1615:1 1820:1 2006:1 2203:1 2404:1 2592:1 2775:1 2959:1 3164:1 3369:1 3589:1 3786:1 3973:1 4162:1 4352:1 4525:1 4710:1 4957:1 5192:1 5388:1 5568:1 5759:1 5974:1 6208:1 6404:1 6596:1 6795:1 7001:1 7181:1 7352:1 7522:1 7690:1 7877:1 8114:1 8328:1 8524:1 8731:1 8959:1 9167:1 9365:1 9580:1 9799:1 10004:1 10208:1 10435:1 10666:1 10868:1 11072:1 11295:1 11530:1 11731:1 11952:1 12187:1 12407:1 12605:1 12818:1 13032:1 13217:1 13417:1 13653:1 13908:1 14124:1 14334:1 14559:1 14784:1 14969:1 
0.9321474503728167 0.3085412605351152 149:1 357:1 585:1 772:1 966:1 1180:1 1368:1 1573:1 1792:1 1990:1 2181:1 2363:1 2537:1 2749:1 2937:1 3111:1 3291:1 3491:1 3698:1 3878:1 4065:1 4272:1 4474:1 4656:1 4846:1 5063:1 5296:1 5505:1 5703:1 5918:1 6142:1 6346:1 6531:1 6720:1 6936:1 7136:1 7334:1 7530:1 7715:1 7901:1 8096:1 8293:1 8522:1 8757:1 8967:1 9188:1 9420:1 9653:1 9865:1 10078:1 10289:1 10519:1 10731:1 10925:1 11130:1 11369:1 11581:1 11786:1 12011:1 12236:1 12438:1 12647:1 12889:1 13126:1 13349:1 13569:1 13796:1 14014:1 14213:1 14424:1 14650:1 14859:1 
0.8990533046630438 0.4129121353900951 52:1 263:1 485:1 698:1 891:1 1107:1 1351:1 1591:1 1797:1 2022:1 2252:1 2480:1 2680:1 2914:1 3174:1 3427:1 3627:1 3808:1 3997:1 4273:1 4515:1 4728:1 4952:1 5196:1 5406:1 5630:1 5878:1 6120:1 6324:1 6518:1 6720:1 6955:1 7167:1 7366:1 7606:1 7856:1 8077:1 8269:1 8480:1 8720:1 8942:1 9144:1 9367:1 9599:1 9826:1 10025:1 10229:1 10467:1 10720:1 10929:1 11131:1 11324:1 11504:1 11705:1 11890:1 12097:1 12310:1 12506:1 12691:1 12872:1 13059:1 13250:1 13438:1 13620:1 13813:1 14022:1 14239:1 14446:1 14668:1 14900:1 
0.6311246081849153 0.2004436146324311 192:1 460:1 675:1 892:1 1143:1 1388:1 1616:1 1842:1 2078:1 2316:1 2542:1 2759:1 2989:1 3218:1 3425:1 3619:1 3834:1 4070:1 4267:1 4475:1 4683:1 4889:1 5092:1 5290:1 5476:1 5651:1 5831:1 6021:1 6216:1 6411:1 6633:1 6841:1 7060:1 7285:1 7500:1 7696:1 7879:1 8049:1 8226:1 8438:1 8641:1 8849:1 9036:1 9223:1 9402:1 9567:1 9733:1 9918:1 10113:1 10297:1 10508:1 10733:1 10966:1 11165:1 11356:1 11560:1 11770:1 11960:1 12160:1 12380:1 12612:1 12827:1 13035:1 13263:1 13467:1 13646:1 13817:1 13981:1 14151:1 14407:1 14614:1 14807:1 
0.6736144370652076 0 40:1 239:1 459:1 688:1 894:1 1116:1 1337:1 1543:1 1749:1 1980:1 2224:1 2432:1 2622:1 2815:1 3017:1 3203:1 3404:1 3635:1 3868:1 4063:1 4280:1 4516:1 4716:1 4916:1 5134:1 5362:1 5558:1 5765:1 6003:1 6247:1 6452:1 6657:1 6868:1 7079:1 7269:1 7457:1 7664:1 7896:1 8121:1 8317:1 8519:1 8736:1 8966:1 9166:1 9366:1 9591:1 9807:1 9993:1 10190:1 10408:1 10624:1 10812:1 11006:1 11219:1 11449:1 11676:1 11871:1 12071:1 12276:1 12466:1 12640:1 12817:1 12996:1 13167:1 13345:1 13521:1 13687:1 13875:1 14082:1 14266:1 14474:1 14687:1 14885:1 
0.6216618271353921 0.1122659567216073 61:1 243:1 450:1 685:1 894:1 1080:1 1293:1 1532:1 1767:1 1965:1 2163:1 2377:1 2611:1 2818:1 3000:1 3188:1 3391:1 3585:1 3765:1 3961:1 4196:1 4417:1 4609:1 4823:1 5055:1 5275:1 5464:1 5676:1 5913:1 6155:1 6347:1 6524:1 6707:1 6928:1 7132:1 7321:1 7544:1 7766:1 7958:1 8163:1 8372:1 8564:1 8744:1 8935:1 9142:1 9357:1 9553:1 9759:1 9992:1 10227:1 10430:1 10618:1 10819:1 11024:1 11209:1 11401:1 11630:1 11871:1 12076:1 12273:1 12506:1 12740:1 12940:1 13137:1 13354:1 13568:1 13763:1 13958:1 14160:1 14383:1 14599:1 14801:1 
0.2487897496432984 0 8:1 201:1 371:1 543:1 723:1 914:1 1086:1 1260:1 1451:1 1646:1 1825:1 1998:1 2175:1 2379:1 2579:1 2754:1 2929:1 3109:1 3292:1 3465:1 3648:1 3842:1 4053:1 4234:1 4422:1 4620:1 4797:1 4973:1 5156:1 5349:1 5519:1 5692:1 5875:1 6053:1 6219:1 6397:1 6603:1 6783:1 6965:1 7153:1 7338:1 7511:1 7696:1 7906:1 8129:1 8346:1 8530:1 8725:1 8942:1 9187:1 9427:1 9621:1 9805:1 9996:1 10239:1 10462:1 10660:1 10860:1 11081:1 11297:1 11480:1 11669:1 11887:1 12133:1 12353:1 12570:1 12811:1 13067:1 13308:1 13508:1 13698:1 13891:1 14083:1 14271:1 14517:1 14767:1 
0.1180028205570779 0 16:1 237:1 475:1 718:1 927:1 1112:1 1324:1 1545:1 1758:1 1959:1 2201:1 2452:1 2651:1 2854:1 3059:1 3274:1 3460:1 3652:1 3839:1 4007:1 4069:1 4163:1 4327:1 4517:1 4721:1 4940:1 5169:1 5400:1 5630:1 5856:1 6073:1 6268:1 6461:1 6659:1 6863:1 7055:1 7264:1 7486:1 7703:1 7896:1 8109:1 8324:1 8544:1 8745:1 8951:1 9165:1 9368:1 9560:1 9763:1 9973:1 10184:1 10376:1 10582:1 10816:1 11031:1 11245:1 11466:1 11683:1 11880:1 12072:1 12263:1 12456:1 12633:1 12802:1 12984:1 13204:1 13424:1 13611:1 13802:1 13995:1 14198:1 14380:1 14576:1 14791:1 
1.130142099094518 0.2516109686325068 159:1 355:1 536:1 726:1 929:1 1139:1 1335:1 1509:1 1690:1 1892:1 2093:1 2270:1 2457:1 2663:1 2885:1 3081:1 3270:1 3465:1 3692:1 3922:1 4118:1 4332:1 4596:1 4859:1 5094:1 5289:1 5498:1 5722:1 5941:1 6139:1 6362:1 6597:1 6816:1 7010:1 7224:1 7464:1 7678:1 7879:1 8115:1 8378:1 8628:1 8845:1 9047:1 9239:1 9431:1 9612:1 9798:1 10051:1 10262:1 10470:1 10704:1 10904:1 11097:1 11309:1 11531:1 11722:1 11926:1 12127:1 12310:1 12520:1 12716:1 12894:1 13087:1 13320:1 13564:1 13771:1 13973:1 14201:1 14430:1 14621:1 14809:1 
0.8201762368918531 0.3076467405553689 11:1 231:1 434:1 622:1 824:1 1043:1 1264:1 1461:1 1654:1 1869:1 2091:1 2289:1 2474:1 2667:1 2890:1 3093:1 3280:1 3478:1 3688:1 3885:1 4065:1 4256:1 4479:1 4709:1 4911:1 5107:1 5326:1 5557:1 5755:1 5949:1 6154:1 6365:1 6557:1 6741:1 6939:1 7184:1 7423:1 7643:1 7836:1 8035:1 8279:1 8535:1 8747:1 8929:1 9118:1 9330:1 9597:1 9825:1 10035:1 10259:1 10466:1 10663:1 10896:1 11168:1 11403:1 11592:1 11783:1 12002:1 12227:1 12432:1 12633:1 12848:1 13066:1 13251:1 13446:1 13682:1 13931:1 14170:1 14375:1 14580:1 14795:1 
0.2282213662126304 0 28:1 254:1 449:1 642:1 849:1 1066:1 1257:1 1433:1 1609:1 1798:1 1984:1 2154:1 2350:1 2537:1 2710:1 2897:1 3105:1 3306:1 3485:1 3667:1 3868:1 4076:1 4270:1 4452:1 4637:1 4831:1 5016:1 5192:1 5374:1 5595:1 5834:1 6043:1 6247:1 6473:1 6690:1 6892:1 7081:1 7283:1 7485:1 7676:1 7861:1 8060:1 8278:1 8474:1 8663:1 8871:1 9083:1 9282:1 9466:1 9665:1 9886:1 10100:1 10287:1 10494:1 10709:1 10897:1 11073:1 11254:1 11448:1 11632:1 11801:1 11965:1 12128:1 12331:1 12526:1 12704:1 12891:1 13093:1 13316:1 13514:1 13699:1 13887:1 14093:1 14283:1 14457:1 14642:1 14844:1 
0.1041461076553305 0 57:1 248:1 450:1 673:1 906:1 1104:1 1309:1 1511:1 1706:1 1897:1 2127:1 2374:1 2579:1 2778:1 2990:1 3203:1 3390:1 3594:1 3825:1 4032:1 4236:1 4480:1 4723:1 4926:1 5146:1 5405:1 5644:1 5835:1 6023:1 6215:1 6397:1 6573:1 6777:1 7007:1 7242:1 7439:1 7649:1 7867:1 8091:1 8289:1 8476:1 8689:1 8915:1 9127:1 9310:1 9495:1 9679:1 9850:1 10019:1 10218:1 10400:1 10582:1 10772:1 10976:1 11162:1 11339:1 11525:1 11717:1 11898:1 12071:1 12253:1 12445:1 12623:1 12802:1 13000:1 13205:1 13390:1 13574:1 13766:1 13980:1 14173:1 14359:1 14567:1 14792:1 14998:1 
0.4038890448373857 0.1808127904134289 180:1 364:1 561:1 764:1 942:1 1119:1 1316:1 1529:1 1726:1 1917:1 2116:1 2324:1 2521:1 2708:1 2904:1 3121:1 3346:1 3540:1 3736:1 3956:1 4186:1 4387:1 4570:1 4767:1 5014:1 5246:1 5435:1 5617:1 5813:1 6032:1 6232:1 6444:1 6676:1 6903:1 7097:1 7298:1 7533:1 7758:1 7952:1 8144:1 8350:1 8582:1 8784:1 8978:1 9183:1 9413:1 9645:1 9839:1 10043:1 10253:1 10470:1 10665:1 10851:1 11057:1 11272:1 11488:1 11675:1 11867:1 12066:1 12258:1 12434:1 12626:1 12840:1 13057:1 13250:1 13460:1 13679:1 13901:1 14096:1 14286:1 14499:1 14698:1 14874:1 
0.1212895105034905 0.1172326864564722 52:1 237:1 416:1 587:1 817:1 1012:1 1193:1 1384:1 1588:1 1778:1 1949:1 2123:1 2309:1 2537:1 2748:1 2939:1 3157:1 3392:1 3626:1 3821:1 4011:1 4212:1 4444:1 4651:1 4836:1 5029:1 5259:1 5501:1 5702:1 5898:1 6117:1 6337:1 6532:1 6714:1 6911:1 7136:1 7354:1 7546:1 7752:1 7976:1 8198:1 8395:1 8605:1 8831:1 9027:1 9202:1 9377:1 9558:1 9786:1 9997:1 10186:1 10385:1 10604:1 10824:1 11021:1 11217:1 11406:1 11586:1 11773:1 11996:1 12184:1 12373:1 12578:1 12773:1 12952:1 13131:1 13330:1 13526:1 13711:1 13916:1 14147:1 14376:1 14580:1 14780:1 14982:1 
0.2450880219923933 0 203:1 402:1 589:1 784:1 1001:1 1213:1 1400:1 1600:1 1805:1 2003:1 2181:1 2376:1 2577:1 2781:1 2964:1 3158:1 3367:1 3563:1 3750:1 3948:1 4152:1 4336:1 4533:1 4732:1 4942:1 5141:1 5344:1 5553:1 5746:1 5921:1 6104:1 6322:1 6523:1 6709:1 6904:1 7110:1 7322:1 7509:1 7701:1 7903:1 8103:1 8283:1 8472:1 8672:1 8872:1 9048:1 9232:1 9449:1 9657:1 9842:1 10033:1 10232:1 10419:1 10607:1 10807:1 11021:1 11223:1 11409:1 11605:1 11826:1 12021:1 12206:1 12411:1 12618:1 12806:1 12989:1 13176:1 13379:1 13570:1 13757:1 13950:1 14166:1 14363:1 14557:1 14757:1 14990:1 
0.005404529170078302 0 211:1 401:1 589:1 792:1 980:1 1159:1 1357:1 1581:1 1814:1 2008:1 2189:1 2390:1 2593:1 2792:1 2977:1 3176:1 3393:1 3590:1 3763:1 3939:1 4139:1 4359:1 4560:1 4766:1 5003:1 5225:1 5419:1 5624:1 5843:1 6030:1 6210:1 6399:1 6597:1 6776:1 6955:1 7129:1 7295:1 7474:1 7651:1 7817:1 7988:1 8174:1 8376:1 8553:1 8727:1 8909:1 9119:1 9307:1 9509:1 9736:1 9969:1 10174:1 10393:1 10626:1 10841:1 11028:1 11206:1 11400:1 11619:1 11815:1 11996:1 12189:1 12379:1 12564:1 12738:1 12912:1 13086:1 13273:1 13466:1 13672:1 13868:1 14042:1 14213:1 14390:1 14587:1 14781:1 14959:1 
0.5273966680656931 0.1629428814679016 185:1 379:1 596:1 833:1 1040:1 1238:1 1454:1 1694:1 1898:1 2095:1 2315:1 2563:1 2778:1 2983:1 3221:1 3483:1 3734:1 3944:1 4150:1 4361:1 4550:1 4727:1 4911:1 5118:1 5326:1 5506:1 5698:1 5882:1 6065:1 6281:1 6483:1 6668:1 6859:1 7060:1 7252:1 7435:1 7632:1 7852:1 8059:1 8248:1 8447:1 8662:1 8855:1 9047:1 9253:1 9464:1 9652:1 9859:1 10078:1 10295:1 10487:1 10688:1 10897:1 11109:1 11296:1 11496:1 11695:1 11908:1 12140:1 12346:1 12537:1 12742:1 12954:1 13160:1 13348:1 13547:1 13758:1 13946:1 14138:1 14343:1 14558:1 14769:1 14950:1 
0.2377384414411724 0 161:1 357:1 549:1 726:1 919:1 1120:1 1309:1 1487:1 1669:1 1845:1 2033:1 2244:1 2480:1 2709:1 2926:1 3128:1 3312:1 3478:1 3641:1 3810:1 3981:1 4156:1 4352:1 4576:1 4773:1 4982:1 5206:1 5419:1 5607:1 5807:1 6014:1 6198:1 6373:1 6557:1 6779:1 7015:1 7246:1 7430:1 7606:1 7792:1 7992:1 8176:1 8381:1 8617:1 8862:1 9063:1 9277:1 9497:1 9683:1 9885:1 10116:1 10322:1 10524:1 10734:1 10935:1 11121:1 11325:1 11540:1 11737:1 11919:1 12109:1 12320:1 12510:1 12694:1 12881:1 13059:1 13238:1 13425:1 13613:1 13792:1 13994:1 14206:1 14403:1 14588:1 14781:1 14980:1 
0.752734310409703 0.1899480221476295 108:1 357:1 578:1 775:1 974:1 1191:1 1403:1 1600:1 1823:1 2056:1 2260:1 2454:1 2680:1 2921:1 3123:1 3329:1 3551:1 3778:1 3973:1 4179:1 4389:1 4611:1 4801:1 4992:1 5198:1 5415:1 5604:1 5809:1 6037:1 6250:1 6437:1 6629:1 6831:1 7017:1 7201:1 7403:1 7643:1 7855:1 8040:1 8235:1 8456:1 8692:1 8886:1 9080:1 9286:1 9504:1 9698:1 9891:1 10091:1 10302:1 10493:1 10675:1 10876:1 11101:1 11329:1 11524:1 11726:1 11958:1 12197:1 12412:1 12595:1 12778:1 12968:1 13175:1 13364:1 13565:1 13786:1 13999:1 14189:1 14403:1 14636:1 14839:1 
0.5939234680000379 0.08515453344617699 38:1 240:1 422:1 606:1 821:1 1051:1 1245:1 1436:1 1662:1 1884:1 2075:1 2279:1 2517:1 2709:1 2895:1 3106:1 3320:1 3507:1 3710:1 3931:1 4129:1 4314:1 4516:1 4716:1 4896:1 5067:1 5232:1 5407:1 5588:1 5758:1 5949:1 6138:1 6307:1 6469:1 6661:1 6850:1 7050:1 7250:1 7431:1 7614:1 7808:1 8012:1 8214:1 8430:1 8669:1 8913:1 9136:1 9340:1 9546:1 9763:1 9978:1 10178:1 10389:1 10623:1 10855:1 11069:1 11286:1 11497:1 11682:1 11878:1 12064:1 12273:1 12524:1 12761:1 12966:1 13164:1 13399:1 13624:1 13823:1 14042:1 14276:1 14498:1 14695:1 14899:1 
0.4784111666183633 0 136:1 377:1 576:1 796:1 1022:1 1218:1 1395:1 1567:1 1737:1 1911:1 2123:1 2323:1 2514:1 2716:1 2930:1 3125:1 3303:1 3490:1 3705:1 3923:1 4114:1 4303:1 4504:1 4730:1 4947:1 5144:1 5363:1 5603:1 5825:1 6018:1 6216:1 6420:1 6611:1 6801:1 7011:1 7229:1 7427:1 7629:1 7847:1 8044:1 8223:1 8392:1 8556:1 8748:1 8928:1 9105:1 9300:1 9529:1 9754:1 9955:1 10149:1 10359:1 10589:1 10810:1 11004:1 11213:1 11447:1 11686:1 11889:1 12073:1 12266:1 12452:1 12626:1 12812:1 13003:1 13199:1 13434:1 13676:1 13886:1 14093:1 14319:1 14559:1 14756:1 14953:1 
0.9343189097240187 0.3200568030491899 168:1 398:1 600:1 805:1 1038:1 1261:1 1455:1 1651:1 1864:1 2077:1 2271:1 2472:1 2679:1 2903:1 3099:1 3302:1 3525:1 3759:1 3968:1 4164:1 4371:1 4557:1 4735:1 4933:1 5118:1 5316:1 5544:1 5767:1 5960:1 6151:1 6352:1 6588:1 6825:1 7032:1 7250:1 7489:1 7719:1 7916:1 8134:1 8397:1 8656:1 8868:1 9066:1 9307:1 9555:1 9763:1 9960:1 10167:1 10394:1 10604:1 10800:1 11018:1 11258:1 11502:1 11703:1 11895:1 12086:1 12283:1 12462:1 12644:1 12824:1 13005:1 13177:1 13352:1 13519:1 13696:1 13918:1 14144:1 14340:1 14524:1 14725:1 14951:1 
0.09279298972129336 0 121:1 281:1 453:1 628:1 789:1 953:1 1124:1 1300:1 1462:1 1621:1 1777:1 1929:1 2081:1 2245:1 2403:1 2571:1 2763:1 2938:1 3112:1 3286:1 3477:1 3678:1 3884:1 4083:1 4277:1 4457:1 4628:1 4800:1 4999:1 5213:1 5423:1 5624:1 5800:1 5971:1 6138:1 6319:1 6511:1 6712:1 6928:1 7129:1 7313:1 7479:1 7642:1 7809:1 8010:1 8207:1 8408:1 8621:1 8816:1 9050:1 9250:1 9462:1 9670:1 9868:1 10080:1 10276:1 10486:1 10715:1 10910:1 11115:1 11339:1 11540:1 11751:1 11958:1 12144:1 12342:1 12549:1 12738:1 12939:1 13147:1 13341:1 13551:1 13773:1 13999:1 14198:1 14398:1 14606:1 14806:1 
0.871252586803251 0.01029827598607604 275:1 457:1 515:1 628:1 795:1 967:1 2074:1 2229:1 2382:1 2539:1 2693:1 2844:1 2997:1 3151:1 3319:1 3507:1 3680:1 3840:1 4007:1 4184:1 4363:1 4534:1 4728:1 4945:1 5125:1 5303:1 5493:1 5665:1 5839:1 6029:1 6248:1 6441:1 6638:1 6858:1 7051:1 7229:1 7414:1 7633:1 7839:1 8029:1 8254:1 8463:1 8650:1 8846:1 9073:1 9292:1 9492:1 9703:1 9923:1 10145:1 10350:1 10571:1 10796:1 11002:1 11227:1 11442:1 11640:1 11851:1 12084:1 12298:1 12491:1 12691:1 12926:1 13159:1 13371:1 13562:1 13770:1 14004:1 14225:1 14420:1 14594:1 14766:1 14947:1 
0.2319616421628957 0 127:1 375:1 595:1 830:1 1090:1 1314:1 1538:1 1775:1 1981:1 2199:1 2421:1 2648:1 2851:1 3023:1 3195:1 3410:1 3656:1 3867:1 4075:1 4310:1 4508:1 4708:1 4938:1 5138:1 5354:1 5565:1 5750:1 5921:1 6107:1 6303:1 6475:1 6651:1 6863:1 7084:1 7311:1 7543:1 7760:1 7960:1 8137:1 8299:1 8463:1 8650:1 8870:1 9098:1 9320:1 9540:1 9757:1 9949:1 10129:1 10290:1 10449:1 10608:1 10828:1 11044:1 11232:1 11419:1 11644:1 11877:1 12070:1 12246:1 12411:1 12580:1 12770:1 12966:1 13180:1 13371:1 13547:1 13716:1 13885:1 14128:1 14351:1 14553:1 14747:1 14932:1 
0.1387956235933843 0 96:1 253:1 412:1 589:1 805:1 998:1 1182:1 1383:1 1600:1 1806:1 1993:1 2164:1 2329:1 2491:1 2654:1 2809:1 2965:1 3124:1 3307:1 3518:1 3747:1 3973:1 4193:1 4370:1 4540:1 4720:1 4907:1 5095:1 5317:1 5527:1 5735:1 5921:1 6120:1 6332:1 6548:1 6758:1 6940:1 7106:1 7269:1 7479:1 7663:1 7849:1 8045:1 8277:1 8491:1 8690:1 8887:1 9097:1 9300:1 9508:1 9691:1 9865:1 10059:1 10266:1 10450:1 10637:1 10888:1 11129:1 11364:1 11579:1 11758:1 11924:1 12098:1 12349:1 12562:1 12762:1 12993:1 13228:1 13451:1 13658:1 13849:1 14039:1 14215:1 14383:1 14544:1 14713:1 14907:1 
0.4944445867282429 0.00336722755917164 47:1 261:1 466:1 649:1 821:1 1006:1 1212:1 1436:1 1633:1 1828:1 2024:1 2213:1 2386:1 2566:1 2760:1 2936:1 3128:1 3356:1 3554:1 3763:1 3970:1 4173:1 4357:1 4527:1 4714:1 4911:1 5085:1 5269:1 5492:1 5719:1 5918:1 6100:1 6288:1 6503:1 6725:1 6948:1 7171:1 7373:1 7557:1 7731:1 7927:1 8169:1 8400:1 8607:1 8796:1 8974:1 9174:1 9402:1 9634:1 9860:1 10054:1 10238:1 10452:1 10701:1 10931:1 11130:1 11332:1 11545:1 11776:1 12014:1 12201:1 12375:1 12552:1 12766:1 13035:1 13234:1 13416:1 13611:1 13830:1 14064:1 14258:1 14449:1 14724:1 14939:1 
0.3213362559953494 0 123:1 333:1 536:1 740:1 927:1 1099:1 1267:1 1482:1 1707:1 1929:1 2142:1 2345:1 2524:1 2694:1 2876:1 3090:1 3297:1 3519:1 3716:1 3895:1 4070:1 4283:1 4508:1 4718:1 4908:1 5100:1 5332:1 5554:1 5769:1 5981:1 6160:1 6331:1 6514:1 6716:1 6933:1 7148:1 7355:1 7534:1 7705:1 7882:1 8110:1 8339:1 8527:1 8724:1 8943:1 9170:1 9398:1 9594:1 9781:1 9971:1 10155:1 10338:1 10506:1 10675:1 10862:1 11056:1 11247:1 11437:1 11609:1 11776:1 11952:1 12154:1 12339:1 12523:1 12731:1 12945:1 13155:1 13337:1 13510:1 13696:1 13893:1 14093:1 14271:1 14430:1 14592:1 14763:1 14958:1 
1.411799306341504 0.3758607591377318 178:1 360:1 534:1 719:1 935:1 1157:1 1347:1 1536:1 1742:1 1949:1 2141:1 2319:1 2496:1 2698:1 2928:1 3165:1 3411:1 3608:1 3797:1 4016:1 4235:1 4450:1 4642:1 4904:1 5174:1 5380:1 5598:1 5839:1 6055:1 6250:1 6470:1 6677:1 6859:1 7040:1 7281:1 7544:1 7743:1 7933:1 8136:1 8352:1 8541:1 8721:1 8973:1 9206:1 9422:1 9619:1 9829:1 10063:1 10262:1 10478:1 10725:1 10938:1 11132:1 11348:1 11572:1 11806:1 12032:1 12244:1 12468:1 12699:1 12912:1 13124:1 13346:1 13570:1 13796:1 13998:1 14203:1 14428:1 14650:1 14835:1 
1.303347768473043 0.3714182509863918 23:1 212:1 395:1 571:1 790:1 1030:1 1225:1 1419:1 1653:1 1889:1 2121:1 2307:1 2483:1 2670:1 2904:1 3172:1 3432:1 3666:1 3870:1 4048:1 4215:1 4380:1 4584:1 4841:1 5058:1 5264:1 5495:1 5731:1 5957:1 6170:1 6374:1 6572:1 6797:1 7039:1 7257:1 7459:1 7663:1 7897:1 8122:1 8330:1 8540:1 8764:1 8993:1 9218:1 9423:1 9625:1 9857:1 10082:1 10292:1 10520:1 10749:1 10960:1 11189:1 11418:1 11630:1 11841:1 12060:1 12279:1 12468:1 12660:1 12850:1 13033:1 13234:1 13434:1 13646:1 13885:1 14125:1 14346:1 14571:1 14816:1 
1.261505195259378 0.3158346815957827 69:1 289:1 473:1 648:1 836:1 1121:1 1379:1 1592:1 1822:1 2081:1 2332:1 2549:1 2734:1 2917:1 3136:1 3392:1 3652:1 3855:1 4047:1 4251:1 4518:1 4786:1 5007:1 5237:1 5467:1 5712:1 5952:1 6144:1 6338:1 6570:1 6769:1 6953:1 7134:1 7356:1 7543:1 7739:1 7942:1 8135:1 8329:1 8505:1 8671:1 8835:1 9024:1 9259:1 9510:1 9751:1 9953:1 10152:1 10352:1 10538:1 10727:1 10941:1 11131:1 11333:1 11550:1 11787:1 11994:1 12204:1 12424:1 12643:1 12859:1 13055:1 13272:1 13499:1 13739:1 13939:1 14135:1 14319:1 14523:1 14775:1 14985:1 
0.06817351117423467 0 151:1 312:1 474:1 670:1 893:1 1120:1 1328:1 1529:1 1722:1 1893:1 2057:1 2217:1 2377:1 2573:1 2776:1 2990:1 3205:1 3420:1 3626:1 3814:1 3981:1 4142:1 4303:1 4476:1 4692:1 4923:1 5160:1 5378:1 5564:1 5738:1 5910:1 6092:1 6278:1 6478:1 6687:1 6896:1 7093:1 7270:1 7439:1 7607:1 7773:1 8042:1 8245:1 8458:1 8679:1 8899:1 9095:1 9279:1 9458:1 9655:1 9890:1 10114:1 10339:1 10544:1 10741:1 10943:1 11147:1 11349:1 11534:1 11709:1 11908:1 12115:1 12338:1 12560:1 12774:1 12962:1 13136:1 13311:1 13496:1 13713:1 13919:1 14129:1 14322:1 14509:1 14700:1 14880:1 
0.217059623617187 0 60:1 272:1 483:1 696:1 880:1 1055:1 1236:1 1433:1 1649:1 1864:1 2043:1 2210:1 2376:1 2551:1 2756:1 2984:1 3179:1 3348:1 3514:1 3686:1 3876:1 4098:1 4299:1 4482:1 4676:1 4900:1 5137:1 5339:1 5523:1 5708:1 5921:1 6163:1 6401:1 6599:1 6779:1 6963:1 7161:1 7386:1 7602:1 7809:1 7991:1 8161:1 8340:1 8561:1 8804:1 9015:1 9201:1 9385:1 9575:1 9793:1 10009:1 10204:1 10388:1 10571:1 10769:1 10980:1 11190:1 11369:1 11552:1 11737:1 11944:1 12167:1 12353:1 12530:1 12705:1 12903:1 13120:1 13336:1 13549:1 13754:1 13952:1 14147:1 14355:1 14557:1 14753:1 14951:1 
0.1472852965897724 0 56:1 214:1 374:1 544:1 742:1 960:1 1162:1 1340:1 1516:1 1707:1 1908:1 2110:1 2303:1 2497:1 2703:1 2931:1 3144:1 3353:1 3554:1 3731:1 3903:1 4081:1 4286:1 4501:1 4723:1 4915:1 5103:1 5309:1 5511:1 5697:1 5879:1 6054:1 6229:1 6407:1 6611:1 6827:1 7051:1 7270:1 7475:1 7665:1 7840:1 8009:1 8187:1 8385:1 8602:1 8825:1 9053:1 9279:1 9493:1 9688:1 9865:1 10033:1 10206:1 10380:1 10567:1 10755:1 10964:1 11154:1 11341:1 11559:1 11779:1 11963:1 12139:1 12311:1 12505:1 12720:1 12938:1 13143:1 13328:1 13504:1 13692:1 13889:1 14103:1 14308:1 14504:1 14683:1 14853:1 
0.04151827131911869 0 74:1 246:1 483:1 702:1 944:1 1152:1 1339:1 1541:1 1774:1 1976:1 2180:1 2397:1 2607:1 2784:1 2959:1 3150:1 3360:1 3580:1 3780:1 3964:1 4166:1 4414:1 4620:1 4807:1 4989:1 5156:1 5337:1 5550:1 5783:1 6019:1 6242:1 6453:1 6640:1 6813:1 6980:1 7163:1 7350:1 7548:1 7741:1 7946:1 8166:1 8388:1 8575:1 8761:1 8962:1 9175:1 9380:1 9581:1 9779:1 9950:1 9981:1 10012:1 10043:1 10074:1 10105:1 10136:1 12074:1 12213:1 12352:1 12489:1 12626:1 12762:1 12900:1 13042:1 13202:1 13388:1 13554:1 13729:1 13933:1 14128:1 14307:1 14484:1 14549:1 14645:1 14806:1 14976:1 
0.03371924325605429 0 219:1 604:1 789:1 846:1 963:1 1127:1 1284:1 1445:1 1632:1 1663:1 1694:1 2419:1 2596:1 2779:1 2967:1 3160:1 3331:1 3508:1 3684:1 3871:1 4048:1 4226:1 4411:1 4616:1 4829:1 5015:1 5195:1 5367:1 5540:1 5739:1 5920:1 6122:1 6325:1 6510:1 6714:1 6918:1 7131:1 7326:1 7504:1 7687:1 7896:1 8109:1 8298:1 8476:1 8650:1 8833:1 9035:1 9225:1 9277:1 9356:1 9405:1 9436:1 9467:1 10095:1 10267:1 10444:1 10619:1 10793:1 10954:1 11119:1 11286:1 11465:1 11652:1 11837:1 12019:1 12195:1 12362:1 12536:1 12715:1 12881:1 13046:1 13233:1 13435:1 13619:1 13812:1 14845:1 
1.221723507672958 0.3296783020665133 24:1 180:1 334:1 461:1 653:1 828:1 995:1 1158:1 1318:1 1476:1 1640:1 2305:1 2619:1 3238:1 3410:1 3975:1 4324:1 4487:1 4648:1 4821:1 5004:1 5199:1 5391:1 5571:1 5741:1 6063:1 6231:1 6396:1 6553:1 6708:1 6866:1 8037:1 8222:1 8547:1 8705:1 8866:1 9040:1 9217:1 9398:1 9574:1 9753:1 9921:1 9973:1 10076:1 10236:1 10394:1 10558:1 10729:1 10910:1 11097:1 11285:1 11452:1 11627:1 11809:1 12003:1 12191:1 12367:1 12556:1 12752:1 12960:1 13161:1 13353:1 13538:1 13709:1 13854:1 13885:1 14045:1 14614:1 14795:1 14969:1 
0.1897243437885755 0 120:1 303:1 480:1 660:1 841:1 1029:1 1083:1 1121:1 1152:1 1227:1 1774:1 1941:1 2120:1 2304:1 2494:1 2684:1 2884:1 3077:1 3248:1 3433:1 3652:1 3856:1 4074:1 4297:1 4522:1 4723:1 4918:1 5114:1 5305:1 5484:1 5656:1 5827:1 6001:1 6176:1 6353:1 6536:1 6726:1 6954:1 7169:1 7369:1 7563:1 7736:1 7909:1 8074:1 8241:1 8415:1 8612:1 8831:1 9021:1 9216:1 9403:1 9586:1 9752:1 9917:1 10096:1 10330:1 10548:1 10757:1 10965:1 11722:1 11894:1 12064:1 12243:1 12451:1 12639:1 12820:1 12997:1 13189:1 13394:1 13609:1 13819:1 14003:1 14177:1 14351:1 14535:1 14744:1 14989:1 
0.1822932302496994 0 96:1 249:1 401:1 554:1 709:1 874:1 1053:1 1249:1 1449:1 1631:1 1801:1 1970:1 2126:1 2285:1 2451:1 2617:1 2785:1 2955:1 3138:1 3320:1 3504:1 3668:1 3838:1 4043:1 4258:1 4443:1 4627:1 4824:1 5015:1 5186:1 5354:1 5525:1 5896:1 6064:1 6234:1 6407:1 6573:1 6748:1 6913:1 7098:1 7298:1 7485:1 7661:1 8765:1 8960:1 9167:1 9353:1 9534:1 9717:1 9904:1 10092:1 10264:1 10437:1 10623:1 10835:1 11051:1 11456:1 11651:1 11829:1 11987:1 12146:1 12305:1 12480:1 12673:1 12884:1 13092:1 13290:1 13481:1 13657:1 13815:1 13972:1 14123:1 14273:1 14427:1 14607:1 14769:1 14938:1 
1.049213423969018 0.2259503358817645 121:1 326:1 510:1 709:1 934:1 1144:1 1332:1 1524:1 1731:1 1939:1 2129:1 2331:1 2557:1 2781:1 2970:1 3158:1 3375:1 3599:1 3784:1 3970:1 4172:1 4362:1 4564:1 4785:1 5001:1 5202:1 5395:1 5611:1 5810:1 5995:1 6192:1 6373:1 6544:1 7188:1 7219:1 7250:1 8058:1 8668:1 8817:1 8968:1 9125:1 9291:1 9456:1 9616:1 9783:1 10119:1 10280:1 10452:1 10631:1 10798:1 10973:1 11159:1 11328:1 11498:1 11686:1 11877:1 12048:1 12220:1 12400:1 12569:1 12745:1 12926:1 13110:1 13282:1 13454:1 13623:1 13787:1 13961:1 14126:1 14300:1 14492:1 14667:1 14844:1 
0.0252940335538024 0 141:1 353:1 552:1 739:1 948:1 1182:1 1401:1 1613:1 1796:1 1972:1 2151:1 2351:1 2572:1 2781:1 2964:1 3153:1 3345:1 3522:1 3704:1 3888:1 4091:1 4276:1 4456:1 4658:1 4864:1 5052:1 5237:1 5435:1 5624:1 5801:1 5987:1 6183:1 6373:1 6558:1 6757:1 6973:1 7170:1 7352:1 7540:1 7742:1 7931:1 8122:1 8330:1 8537:1 8723:1 8909:1 9108:1 9305:1 9486:1 9671:1 9864:1 10045:1 10231:1 10424:1 10627:1 10822:1 10998:1 11177:1 11367:1 11565:1 11754:1 11925:1 12092:1 12266:1 12446:1 12618:1 12795:1 12971:1 13153:1 13324:1 13494:1 13666:1 13844:1 14012:1 14171:1 14333:1 14498:1 14667:1 14841:1 
0.4863724181329612 0.08224927433575221 58:1 269:1 509:1 716:1 904:1 1090:1 1273:1 1465:1 1681:1 1892:1 2095:1 2277:1 2457:1 2644:1 2848:1 3063:1 3248:1 3431:1 3622:1 3824:1 4007:1 4194:1 4402:1 4622:1 4811:1 5013:1 5227:1 5454:1 5651:1 5833:1 6019:1 6218:1 6408:1 6606:1 6825:1 7069:1 7281:1 7476:1 7678:1 7871:1 8055:1 8252:1 8426:1 8597:1 8766:1 8950:1 9224:1 9458:1 9668:1 9891:1 10119:1 10327:1 10520:1 10725:1 10930:1 11134:1 11341:1 11519:1 11694:1 11869:1 12074:1 12295:1 12476:1 12656:1 12849:1 13056:1 13262:1 13462:1 13646:1 13820:1 13999:1 14212:1 14424:1 14613:1 14810:1 
0.325431977342353 0 30:1 263:1 481:1 665:1 850:1 1048:1 1258:1 1438:1 1611:1 1779:1 1947:1 2150:1 2356:1 2555:1 2781:1 3017:1 3239:1 3432:1 3632:1 3849:1 4072:1 4264:1 4446:1 4644:1 4856:1 5070:1 5261:1 5446:1 5663:1 5876:1 6064:1 6255:1 6473:1 6695:1 6902:1 7087:1 7258:1 7427:1 7604:1 7800:1 7985:1 8163:1 8353:1 8575:1 8784:1 8972:1 9158:1 9345:1 9536:1 9712:1 9891:1 10098:1 10307:1 10494:1 10699:1 10953:1 11185:1 11379:1 11583:1 11807:1 12012:1 12200:1 12388:1 12586:1 12788:1 12976:1 13172:1 13408:1 13628:1 13824:1 14022:1 14256:1 14480:1 14683:1 14873:1 
0.2504777145259742 0 84:1 313:1 524:1 719:1 935:1 1166:1 1378:1 1567:1 1764:1 1994:1 2199:1 2389:1 2595:1 2816:1 3013:1 3200:1 3396:1 3611:1 3803:1 3988:1 4191:1 4406:1 4598:1 4782:1 4992:1 5226:1 5443:1 5641:1 5838:1 6053:1 6244:1 6417:1 6589:1 6758:1 6925:1 7109:1 7307:1 7479:1 7657:1 7847:1 8033:1 8207:1 8388:1 8590:1 8793:1 8974:1 9164:1 9371:1 9565:1 9745:1 9931:1 10128:1 10317:1 10504:1 10717:1 10935:1 11128:1 11325:1 11537:1 11735:1 11919:1 12105:1 12311:1 12504:1 12685:1 12883:1 13092:1 13285:1 13482:1 13691:1 13895:1 14083:1 14276:1 14475:1 14666:1 14842:1 
0.06380744613864382 0 18:1 199:1 388:1 567:1 740:1 922:1 1129:1 1338:1 1522:1 1698:1 1878:1 2064:1 2236:1 2410:1 2591:1 2773:1 2945:1 3121:1 3312:1 3496:1 3667:1 4158:1 4319:1 4479:1 4646:1 4831:1 5026:1 5203:1 5379:1 5572:1 5771:1 5948:1 6123:1 6302:1 6491:1 6664:1 6846:1 7043:1 7255:1 7443:1 7630:1 7827:1 8036:1 8226:1 8412:1 8618:1 8849:1 9067:1 9258:1 9451:1 9657:1 9889:1 10098:1 10295:1 10495:1 10705:1 10926:1 11121:1 11312:1 11519:1 11731:1 11919:1 12098:1 12275:1 12446:1 12620:1 12835:1 13027:1 13223:1 13474:1 13723:1 13938:1 14139:1 14356:1 14583:1 14788:1 14981:1 
0.4288448981644445 0 34:1 203:1 373:1 546:1 741:1 941:1 1122:1 1298:1 1475:1 1659:1 1831:1 2004:1 2185:1 2386:1 2576:1 2762:1 2981:1 3215:1 3424:1 3611:1 3802:1 4014:1 4233:1 4429:1 4622:1 4847:1 5077:1 5283:1 5474:1 5681:1 5912:1 6116:1 6302:1 6487:1 6687:1 6926:1 7138:1 7332:1 7537:1 7747:1 7948:1 8135:1 8320:1 8516:1 8723:1 8903:1 9076:1 9245:1 9409:1 9578:1 9802:1 9990:1 10172:1 10380:1 10600:1 10799:1 10982:1 11178:1 11397:1 11629:1 11822:1 12006:1 12203:1 12410:1 12599:1 12781:1 12993:1 13239:1 13464:1 13655:1 13847:1 14049:1 14246:1 14424:1 14602:1 14803:1 
0.05642405819009538 0 111:1 305:1 512:1 705:1 884:1 1066:1 1263:1 1479:1 1665:1 1844:1 2030:1 2216:1 2389:1 2566:1 2760:1 2952:1 3129:1 3307:1 3504:1 3694:1 3871:1 4051:1 4240:1 4425:1 4604:1 4792:1 5018:1 5211:1 5390:1 5568:1 5758:1 5948:1 6126:1 6308:1 6504:1 6688:1 6866:1 7045:1 7238:1 7433:1 7609:1 7775:1 7936:1 8102:1 8291:1 8466:1 8636:1 8817:1 9020:1 9211:1 9390:1 9586:1 9800:1 9998:1 10179:1 10360:1 10567:1 10777:1 10971:1 11178:1 11409:1 11630:1 11827:1 12017:1 12228:1 12454:1 12651:1 12847:1 13074:1 13313:1 13528:1 13721:1 13915:1 14118:1 14311:1 14490:1 14669:1 14857:1 
0.2073933701220777 0 185:1 393:1 604:1 793:1 999:1 1229:1 1452:1 1645:1 1841:1 2062:1 2297:1 2492:1 2681:1 2883:1 3118:1 3329:1 3515:1 3697:1 3890:1 4100:1 4294:1 4482:1 4680:1 4888:1 5098:1 5290:1 5479:1 5681:1 5914:1 6135:1 6328:1 6516:1 6713:1 6924:1 7147:1 7342:1 7529:1 7721:1 7922:1 8142:1 8339:1 8533:1 8743:1 8963:1 9179:1 9368:1 9550:1 9737:1 9967:1 10193:1 10384:1 10561:1 10734:1 10900:1 11068:1 11262:1 11440:1 11623:1 11837:1 12031:1 12212:1 12400:1 12602:1 12802:1 12984:1 13165:1 13365:1 13570:1 13754:1 13939:1 14136:1 14344:1 14562:1 14757:1 14961:1 
0.5449380079680446 0.0468821675044347 51:1 116:1 232:1 323:1 413:1 595:1 954:1 1138:1 1320:1 1502:1 1680:1 1853:1 2031:1 2218:1 2414:1 2614:1 2816:1 3014:1 3207:1 3385:1 3559:1 3732:1 3919:1 4122:1 4331:1 4537:1 4741:1 4951:1 5156:1 5364:1 5557:1 5740:1 5919:1 6100:1 6284:1 6466:1 6648:1 6840:1 7045:1 7255:1 7467:1 7670:1 7859:1 8045:1 8232:1 8401:1 8591:1 8646:1 8759:1 8790:1 8821:1 9414:1 9451:1 9482:1 9839:1 10730:1 10915:1 11117:1 11322:1 11522:1 11722:1 11920:1 12110:1 12299:1 12475:1 13498:1 13669:1 13855:1 14048:1 14237:1 14387:1 14437:1 14636:1 14827:1 
0.7439088352821281 0.3676411303259479 10:1 181:1 345:1 505:1 668:1 837:1 1006:1 1191:1 1379:1 1433:1 1572:1 1765:1 1959:1 2157:1 2712:1 2792:1 2823:1 3500:1 3658:1 3820:1 3983:1 4146:1 4312:1 4478:1 4647:1 4987:1 5153:1 5210:1 5349:1 5859:1 5959:1 6177:1 6684:1 7049:1 7241:1 7442:1 7647:1 7678:1 8911:1 9079:1 9254:1 9432:1 9611:1 9788:1 9962:1 10139:1 11035:1 11228:1 11428:1 11625:1 11817:1 11867:1 11959:1 11998:1 12173:1 12343:1 12414:1 12445:1 13048:1 13227:1 13317:1 13413:1 13599:1 13786:1 13972:1 14156:1 14334:1 14505:1 14678:1 14850:1 
1.344480758745513 0.2807212916287076 450:1 644:1 901:1 1088:1 1829:1 2506:1 2679:1 2729:1 2760:1 2791:1 3528:1 3701:1 3874:1 4054:1 4242:1 4437:1 4628:1 4811:1 4996:1 5051:1 5182:1 5366:1 5541:1 5707:1 5764:1 5870:1 5911:1 6037:1 6208:1 6418:1 6449:1 6813:1 6983:1 7092:1 7958:1 8111:1 8266:1 9013:1 9044:1 9736:1 9919:1 10099:1 10154:1 10288:1 10479:1 10671:1 10870:1 11068:1 11254:1 11437:1 11496:1 11617:1 11794:1 11970:1 12144:1 12196:1 12263:1 12325:1 12434:1 12506:1 13052:1 13233:1 13414:1 13595:1 13768:1 13941:1 13997:1 14114:1 14285:1 14453:1 14936:1 
1.314748510980197 0.5034507002441546 11:1 236:1 451:1 661:1 861:1 1042:1 1210:1 1377:1 1549:1 1728:1 1911:1 2111:1 2318:1 2523:1 2728:1 2938:1 3151:1 3356:1 3553:1 3749:1 3941:1 4127:1 4316:1 4351:1 4382:1 4512:1 4920:1 5130:1 5531:1 5717:1 5910:1 6097:1 6152:1 6200:1 6278:1 6446:1 6607:1 6940:1 7106:1 7297:1 7480:1 7674:1 7867:1 8056:1 8250:1 8444:1 8626:1 8808:1 8986:1 9165:1 9342:1 10061:1 10209:1 10240:1 10285:1 10316:1 11112:1 11578:1 11726:1 11872:1 12049:1 12164:1 12512:1 12707:1 13692:1 13776:1 13981:1 14186:1 14392:1 14593:1 
0.4046781911280931 0 69:1 271:1 483:1 690:1 742:1 1271:1 1800:1 1976:1 2157:1 2352:1 2542:1 2731:1 2919:1 3008:1 3106:1 3284:1 3459:1 3646:1 3840:1 4027:1 4209:1 4393:1 4587:1 4788:1 4978:1 5165:1 5343:1 5516:1 5697:1 5884:1 6082:1 6289:1 6487:1 6675:1 6890:1 7080:1 7242:1 7273:1 7829:1 8383:1 8564:1 8751:1 8934:1 9116:1 9293:1 9483:1 9676:1 9862:1 10052:1 10240:1 10300:1 10422:1 10633:1 10664:1 10695:1 11531:1 11739:1 11943:1 12134:1 12326:1 12530:1 12739:1 12953:1 13161:1 13361:1 13567:1 13776:1 13984:1 14179:1 14387:1 14596:1 14795:1 14994:1 
0.1950450902414791 0 103:1 271:1 440:1 602:1 769:1 939:1 1108:1 1276:1 1444:1 1610:1 1770:1 1928:1 2088:1 2253:1 2422:1 2615:1 2807:1 2998:1 3186:1 3376:1 3561:1 4087:1 4259:1 4430:1 4607:1 4782:1 4980:1 5759:1 6312:1 6484:1 6654:1 6820:1 6984:1 7154:1 7327:1 7499:1 7668:1 7852:1 8049:1 8245:1 8436:1 8632:1 8829:1 9015:1 9206:1 9390:1 9565:1 9741:1 9918:1 10105:1 10300:1 10499:1 10703:1 10903:1 11092:1 11288:1 11476:1 11660:1 11843:1 12033:1 12092:1 12216:1 12407:1 12608:1 12804:1 12995:1 13181:1 13362:1 13540:1 13719:1 13899:1 14075:1 14244:1 14417:1 14595:1 14779:1 14960:1 
0.3459154812306736 0 61:1 257:1 457:1 651:1 860:1 1069:1 1278:1 1490:1 1695:1 1903:1 2108:1 2309:1 2500:1 2699:1 2905:1 3105:1 3301:1 3496:1 3681:1 3855:1 4031:1 4214:1 4425:1 4638:1 4865:1 5085:1 5143:1 5306:1 5519:1 5716:1 5903:1 6089:1 6276:1 6469:1 6660:1 6868:1 7081:1 7296:1 7499:1 7699:1 7902:1 8108:1 8298:1 8498:1 8697:1 8892:1 8945:1 9084:1 9281:1 9467:1 9660:1 9723:1 9853:1 10045:1 10239:1 10438:1 10626:1 10806:1 10974:1 11148:1 11338:1 11523:1 11724:1 11931:1 12138:1 12350:1 12545:1 12737:1 12932:1 13134:1 13336:1 13525:1 14292:1 14523:1 14750:1 14965:1 
0.1809790118402864 0 43:1 257:1 474:1 680:1 892:1 1104:1 1313:1 1507:1 1695:1 1883:1 2068:1 2258:1 2454:1 2664:1 2881:1 3102:1 3315:1 3514:1 3710:1 3906:1 4098:1 4282:1 4465:1 4636:1 4806:1 4991:1 5191:1 5385:1 5592:1 5801:1 6014:1 6216:1 6409:1 6605:1 6654:1 6793:1 6850:1 6881:1 6974:1 7158:1 7341:1 7426:1 8021:1 8061:1 8362:1 8393:1 8677:1 9743:1 10411:1 10543:1 10676:1 10809:1 10941:1 11075:1 11214:1 11353:1 11494:1 11641:1 11793:1 11944:1 11991:1 12098:1 12252:1 12405:1 12559:1 12710:1 12861:1 13010:1 13302:1 13447:1 13590:1 13736:1 13784:1 13887:1 14560:1 14591:1 14911:1 
0.5649394930632506 0 427:1 1274:1 2043:1 2248:1 2442:1 2632:1 2823:1 3021:1 3214:1 3418:1 3634:1 3857:1 4064:1 4259:1 4441:1 4625:1 4815:1 4998:1 5182:1 5370:1 5571:1 5762:1 5947:1 6130:1 6314:1 6504:1 6699:1 6886:1 7092:1 7149:1 7305:1 7527:1 7738:1 7939:1 8142:1 8340:1 8531:1 8717:1 8897:1 9079:1 9258:1 9438:1 9623:1 9798:1 9973:1 10150:1 10213:1 10337:1 10520:1 10699:1 10871:1 11036:1 11200:1 11366:1 11527:1 11690:1 11860:1 12031:1 12210:1 12392:1 12449:1 12569:1 12749:1 12931:1 13115:1 13295:1 13463:1 13633:1 13812:1 14000:1 14191:1 14377:1 14574:1 14782:1 14988:1 
0.5436358824926962 0.02018840308145531 184:1 387:1 592:1 805:1 1012:1 1220:1 1436:1 1658:1 1883:1 2096:1 2311:1 2523:1 2732:1 2948:1 3153:1 3359:1 3570:1 3782:1 3992:1 4194:1 4402:1 4615:1 4829:1 5023:1 5232:1 5451:1 5674:1 5884:1 6093:1 6291:1 6470:1 6644:1 6821:1 7007:1 7217:1 7430:1 7641:1 7846:1 8060:1 8284:1 8516:1 8748:1 8959:1 9169:1 9379:1 9418:1 9449:1 9590:1 9793:1 10009:1 10227:1 10436:1 10652:1 10874:1 11096:1 11301:1 11510:1 11715:1 11914:1 12105:1 12301:1 12507:1 12718:1 12931:1 13042:1 13146:1 13352:1 13544:1 13734:1 13924:1 14111:1 14301:1 14492:1 14699:1 14906:1 
0.4096996728179383 0.07276171321642963 110:1 314:1 530:1 749:1 966:1 1166:1 1359:1 1553:1 1752:1 1948:1 2143:1 2356:1 2586:1 2827:1 3050:1 3264:1 3480:1 3690:1 3889:1 4098:1 4312:1 4522:1 4747:1 4973:1 5190:1 5393:1 5599:1 5809:1 6023:1 6222:1 6430:1 6575:1 6643:1 6857:1 7054:1 7247:1 7447:1 7643:1 7826:1 7997:1 8173:1 8359:1 8541:1 8736:1 8948:1 9170:1 9387:1 9589:1 9795:1 10007:1 10218:1 10425:1 10625:1 10830:1 11037:1 11246:1 11447:1 11641:1 11841:1 12045:1 12248:1 12443:1 12641:1 12846:1 13047:1 13258:1 13480:1 13700:1 13906:1 13967:1 14117:1 14338:1 14562:1 14788:1 15000:1 
0.9428691042447634 0.2339623690069412 68:1 274:1 473:1 504:1 569:1 654:1 739:1 824:1 856:1 1498:1 1868:1 1945:1 2155:1 2360:1 2568:1 2788:1 3007:1 3220:1 3628:1 3846:1 3914:1 4056:1 4243:1 4513:1 4738:1 4778:1 4809:1 4933:1 4996:1 5040:1 5839:1 6242:1 6432:1 6463:1 6684:1 7073:1 7262:1 7293:1 7456:1 7487:1 7646:1 7833:1 8026:1 8232:1 8450:1 8507:1 8538:1 8670:1 8879:1 9098:1 9190:1 9221:1 9252:1 9718:1 10913:1 11109:1 11318:1 11527:1 11597:1 11708:1 11739:1 12941:1 13129:1 13319:1 13516:1 13713:1 13900:1 14089:1 14277:1 14467:1 14661:1 14863:1 
0.2238619931329513 0 70:1 287:1 510:1 733:1 949:1 1168:1 1385:1 1599:1 1802:1 2010:1 2219:1 2420:1 2613:1 2815:1 3032:1 3248:1 3445:1 3633:1 3810:1 3983:1 4164:1 4340:1 4706:1 4895:1 5097:1 5301:1 5505:1 5570:1 5708:1 6103:1 6298:1 6495:1 6691:1 6879:1 7072:1 7268:1 7465:1 7670:1 7885:1 8096:1 8310:1 8526:1 8730:1 8923:1 9114:1 9304:1 9501:1 9700:1 9893:1 10082:1 10265:1 10431:1 10595:1 10759:1 10928:1 11112:1 11292:1 11471:1 11651:1 11831:1 12012:1 12191:1 12366:1 12533:1 12700:1 12864:1 13029:1 13218:1 13417:1 13644:1 13876:1 14114:1 14349:1 14411:1 14571:1 14790:1 
0.5002541279465171 0 220:1 446:1 669:1 884:1 1094:1 1299:1 1494:1 1686:1 1886:1 2091:1 2299:1 2518:1 2737:1 2957:1 3179:1 3398:1 3603:1 3807:1 4004:1 4201:1 4391:1 4587:1 4801:1 5028:1 5251:1 5480:1 5708:1 5930:1 6143:1 6355:1 6563:1 6763:1 6811:1 6950:1 7132:1 7320:1 7526:1 7740:1 7952:1 8165:1 8389:1 8618:1 8844:1 9057:1 9265:1 9473:1 9680:1 9879:1 10074:1 10271:1 10469:1 10663:1 10867:1 11077:1 11288:1 11493:1 11699:1 11909:1 12120:1 12322:1 12514:1 12707:1 12906:1 13105:1 13303:1 13512:1 13726:1 13944:1 14151:1 14357:1 14563:1 14622:1 14760:1 14940:1 
0.07450486305233819 0 135:1 336:1 543:1 750:1 953:1 1172:1 1395:1 1622:1 1836:1 2051:1 2270:1 2488:1 2700:1 2896:1 3086:1 3277:1 3473:1 3676:1 3900:1 4142:1 4372:1 4596:1 4822:1 5040:1 5239:1 5427:1 5611:1 5796:1 5979:1 6163:1 6357:1 6561:1 6782:1 6997:1 7203:1 7406:1 7604:1 7792:1 7981:1 8170:1 8366:1 8557:1 8747:1 8947:1 9154:1 9360:1 9553:1 9749:1 9941:1 10135:1 10318:1 10500:1 10685:1 10872:1 11056:1 11247:1 11444:1 11634:1 11818:1 12011:1 12206:1 12391:1 12588:1 12797:1 13012:1 13239:1 13302:1 13464:1 13526:1 13680:1 13889:1 14093:1 14296:1 14496:1 14687:1 14894:1 
0.9068587868669199 0.3851020853652373 182:1 398:1 1197:1 1391:1 1583:1 1778:1 1966:1 2148:1 2204:1 2323:1 2501:1 2675:1 2727:1 2849:1 3027:1 3208:1 3399:1 3594:1 3783:1 3982:1 4187:1 4396:1 4598:1 4801:1 4931:1 4962:1 5164:1 5520:1 5586:1 5618:1 5649:1 6741:1 6886:1 7031:1 7359:1 7808:1 8046:1 8106:1 8272:1 8489:1 8720:1 8952:1 9179:1 9389:1 9595:1 9795:1 10001:1 10202:1 10408:1 10642:1 10886:1 11128:1 11349:1 11573:1 11796:1 12014:1 12076:1 12219:1 12420:1 12621:1 12828:1 13029:1 13235:1 13463:1 13698:1 13930:1 14144:1 14353:1 14561:1 14775:1 14996:1 
0.4009532549223671 0.07176224201071556 207:1 414:1 633:1 864:1 1096:1 1322:1 1533:1 1751:1 1971:1 2199:1 2427:1 2639:1 2859:1 3082:1 3298:1 3499:1 3709:1 3923:1 4120:1 4318:1 4505:1 4690:1 4887:1 5089:1 5149:1 5283:1 5480:1 5693:1 5911:1 6130:1 6328:1 6516:1 6707:1 6902:1 7089:1 7275:1 7468:1 7670:1 7869:1 8057:1 8248:1 8448:1 8671:1 8895:1 9107:1 9328:1 9557:1 9793:1 10024:1 10236:1 10443:1 10651:1 10858:1 11049:1 11236:1 11429:1 11647:1 11880:1 12111:1 12335:1 12565:1 12788:1 13007:1 13072:1 13202:1 13398:1 13597:1 13808:1 14037:1 14248:1 14459:1 14678:1 14897:1 
0.3191334883975718 0.1395386248356393 164:1 398:1 626:1 851:1 1078:1 1306:1 1525:1 1726:1 1917:1 2116:1 2322:1 2545:1 2761:1 2981:1 3217:1 3458:1 3699:1 3916:1 4136:1 4223:1 4347:1 4540:1 4725:1 4895:1 5068:1 5214:1 5245:1 5459:1 5821:1 6009:1 6207:1 6406:1 6611:1 6825:1 7044:1 7254:1 7464:1 7682:1 7907:1 8117:1 8332:1 8570:1 8804:1 9038:1 9264:1 9499:1 9737:1 9975:1 10206:1 10435:1 10666:1 10845:1 10882:1 11074:1 11256:1 11430:1 11610:1 11807:1 12014:1 12220:1 12436:1 12660:1 12887:1 13113:1 13322:1 13525:1 13723:1 13919:1 14118:1 14313:1 14511:1 14720:1 14938:1 
0.6261919110448395 0.1123358910789591 71:1 274:1 480:1 669:1 863:1 1083:1 1297:1 1504:1 1718:1 1935:1 2156:1 2380:1 2596:1 2813:1 3039:1 3270:1 3499:1 3716:1 3929:1 4142:1 4359:1 4577:1 4787:1 5003:1 5232:1 5467:1 5697:1 5915:1 6137:1 6359:1 6576:1 6644:1 6786:1 7001:1 7223:1 7446:1 7657:1 7723:1 7861:1 8073:1 8295:1 8521:1 8739:1 8955:1 9166:1 9370:1 9557:1 9740:1 9931:1 10129:1 10327:1 10517:1 10703:1 10893:1 11084:1 11273:1 11461:1 11658:1 11863:1 12071:1 12277:1 12486:1 12693:1 12893:1 13098:1 13312:1 13536:1 13758:1 13970:1 14180:1 14391:1 14605:1 14817:1 
0.5191811701303464 0.1123777280137035 33:1 253:1 472:1 686:1 908:1 1131:1 1354:1 1565:1 1765:1 1966:1 2180:1 2401:1 2615:1 2780:1 2816:1 2850:1 2881:1 3015:1 3204:1 3388:1 3581:1 3789:1 4011:1 4222:1 4418:1 4620:1 4839:1 5069:1 5305:1 5526:1 5746:1 5968:1 6184:1 6387:1 6594:1 6807:1 7020:1 7227:1 7438:1 7650:1 7864:1 8069:1 8281:1 8502:1 8728:1 8945:1 9167:1 9386:1 9601:1 9661:1 9799:1 9992:1 10182:1 10377:1 10585:1 10792:1 11013:1 11261:1 11506:1 11749:1 11981:1 12214:1 12450:1 12679:1 12894:1 13091:1 13284:1 13480:1 13682:1 13890:1 14089:1 14297:1 14512:1 14728:1 14932:1 
0.4629855840395288 0.1646886417630751 242:1 394:1 547:1 707:1 879:1 1062:1 1247:1 1442:1 1641:1 1845:1 2040:1 2103:1 2228:1 2425:1 2631:1 2839:1 3052:1 3267:1 3487:1 3702:1 3907:1 4112:1 4318:1 4533:1 4756:1 4977:1 5203:1 5426:1 5645:1 5858:1 6059:1 6261:1 6462:1 6672:1 6887:1 7094:1 7313:1 7536:1 7762:1 7970:1 8173:1 8379:1 8587:1 8795:1 8988:1 9177:1 9368:1 9566:1 9779:1 9992:1 10194:1 10396:1 10605:1 10821:1 11043:1 11254:1 11459:1 11665:1 11877:1 12097:1 12318:1 12523:1 12724:1 12935:1 13140:1 13360:1 13568:1 13780:1 13993:1 14203:1 14407:1 14616:1 14821:1 
0.217267206887558 0 112:1 346:1 569:1 795:1 1024:1 1239:1 1458:1 1669:1 1882:1 2078:1 2285:1 2496:1 2711:1 2918:1 3120:1 3327:1 3539:1 3754:1 3962:1 4172:1 4384:1 4590:1 4782:1 4967:1 5156:1 5361:1 5566:1 5781:1 6006:1 6229:1 6440:1 6653:1 6854:1 7046:1 7232:1 7421:1 7619:1 7825:1 8026:1 8226:1 8432:1 8642:1 8845:1 9042:1 9243:1 9447:1 9647:1 9835:1 10021:1 10212:1 10411:1 10605:1 10805:1 11008:1 11214:1 11412:1 11602:1 11790:1 11978:1 12161:1 12338:1 12520:1 12711:1 12905:1 13092:1 13279:1 13476:1 13682:1 13879:1 14070:1 14256:1 14430:1 14591:1 14750:1 14913:1 
0.133413611672218 0 97:1 518:1 745:1 977:1 1032:1 1208:1 1427:1 1646:1 1859:1 2062:1 2252:1 2446:1 2644:1 2848:1 3043:1 3238:1 3454:1 3674:1 3892:1 3953:1 4104:1 4329:1 4549:1 4766:1 4965:1 5155:1 5352:1 5551:1 5749:1 5938:1 6128:1 6326:1 6530:1 6736:1 6933:1 7139:1 7348:1 7553:1 7747:1 7931:1 8115:1 8300:1 8487:1 8661:1 8840:1 9043:1 9247:1 9457:1 9657:1 9855:1 10057:1 10263:1 10455:1 10637:1 10818:1 11010:1 11215:1 11430:1 11635:1 11830:1 12023:1 12211:1 12386:1 12711:1 12888:1 13080:1 13297:1 13532:1 13753:1 13981:1 14204:1 14263:1 14430:1 14492:1 14654:1 14721:1 14872:1 
1.122623999987882 0.2003052913738882 142:1 530:1 743:1 786:1 817:1 954:1 1151:1 1346:1 1542:1 1587:1 1618:1 1649:1 1733:1 2290:1 2346:1 3139:1 3253:1 3300:1 3862:1 4074:1 4281:1 4486:1 4693:1 4891:1 5083:1 5282:1 5491:1 5710:1 5874:1 5907:1 6134:1 6171:1 6689:1 6860:1 7033:1 7213:1 7396:1 7743:1 7920:1 7982:1 8093:1 8260:1 8428:1 8606:1 8670:1 8805:1 9007:1 9195:1 9376:1 9558:1 9735:1 9909:1 10085:1 10269:1 10467:1 10669:1 10856:1 11038:1 11216:1 11401:1 11591:1 11781:1 11969:1 12016:1 12047:1 12399:1 13892:1 13923:1 14247:1 14905:1 
0.02712801997308722 0 152:1 347:1 544:1 727:1 899:1 1071:1 1240:1 1404:1 1570:1 1741:1 1920:1 2110:1 2289:1 2471:1 2613:1 2644:1 2811:1 2982:1 3160:1 3334:1 3521:1 3712:1 3902:1 4081:1 4254:1 4422:1 4584:1 4756:1 4950:1 5142:1 5361:1 5578:1 5776:1 5965:1 6167:1 6361:1 6551:1 6754:1 6962:1 7165:1 7358:1 7557:1 7775:1 7993:1 8201:1 8419:1 8641:1 8873:1 9087:1 9296:1 9503:1 9693:1 9873:1 10051:1 10230:1 10431:1 10650:1 10882:1 11100:1 11317:1 11534:1 11744:1 11939:1 12126:1 12319:1 12518:1 12725:1 12943:1 13167:1 13390:1 13620:1 13832:1 14024:1 14202:1 14375:1 14545:1 14725:1 14914:1 
0.3906505581554305 0 29:1 236:1 426:1 616:1 808:1 996:1 1189:1 1388:1 1593:1 1787:1 1983:1 2185:1 2393:1 2591:1 2786:1 2981:1 3176:1 3359:1 3539:1 3711:1 3895:1 4094:1 4302:1 4501:1 4702:1 4910:1 5116:1 5311:1 5504:1 5701:1 5899:1 6084:1 6265:1 6341:1 6418:1 6483:1 6555:1 6625:1 7049:1 7114:1 7364:1 7448:1 7575:1 7961:1 8151:1 8351:1 8555:1 8755:1 8958:1 9159:1 9362:1 9752:1 9948:1 10123:1 10167:1 10829:1 11010:1 11211:1 11423:1 11648:1 11888:1 12128:1 12363:1 12583:1 12794:1 13001:1 13060:1 13211:1 13425:1 13629:1 13830:1 14036:1 14260:1 14497:1 14734:1 14957:1 
0.02931298328790983 0 187:1 379:1 570:1 772:1 980:1 1193:1 1395:1 1590:1 1794:1 2011:1 2235:1 2451:1 2672:1 2897:1 3126:1 3341:1 3547:1 3754:1 3962:1 4163:1 4369:1 4590:1 4819:1 5036:1 5248:1 5459:1 5673:1 5887:1 6092:1 6292:1 6494:1 6702:1 6917:1 7123:1 7333:1 7551:1 7771:1 7979:1 8181:1 8375:1 8561:1 8737:1 8792:1 8902:1 9597:1 9652:1 9834:1 10061:1 10285:1 10344:1 10507:1 10714:1 10917:1 11119:1 11318:1 11506:1 11697:1 11890:1 12091:1 12294:1 12499:1 12697:1 12883:1 13064:1 13252:1 13455:1 13662:1 13876:1 14082:1 14295:1 14517:1 14580:1 14739:1 14800:1 14960:1 
0.420277949342674 0.1926434446449748 359:1 417:1 546:1 1393:1 1555:1 1899:1 1959:1 2083:1 2988:1 3173:1 3356:1 3541:1 3921:1 4063:1 4113:1 4307:1 4508:1 4715:1 4920:1 5113:1 5301:1 5485:1 5660:1 5840:1 5897:1 6025:1 6218:1 6411:1 6617:1 6681:1 6830:1 7039:1 7426:1 7605:1 7783:1 7962:1 8145:1 8192:1 8328:1 8519:1 8724:1 8939:1 9155:1 9358:1 9565:1 9770:1 10325:1 10358:1 10499:1 10856:1 11045:1 11233:1 11433:1 11643:1 11852:1 12055:1 12259:1 12318:1 12453:1 12637:1 12812:1 12990:1 13049:1 13175:1 13229:1 13375:1 13572:1 13639:1 13780:1 13991:1 14196:1 14395:1 14594:1 
0.06933429720850576 0 3:1 204:1 403:1 597:1 775:1 1646:1 1679:1 1826:1 2101:1 2671:1 2835:1 3003:1 3046:1 3175:1 3350:1 3525:1 3704:1 3756:1 3881:1 4059:1 4237:1 4429:1 4616:1 4799:1 4980:1 5159:1 5347:1 5529:1 5714:1 6082:1 6260:1 6434:1 6607:1 6780:1 6953:1 7130:1 7300:1 7356:1 7460:1 7616:1 7672:1 7766:1 7912:1 8056:1 8197:1 8339:1 8482:1 8635:1 8825:1 9021:1 9218:1 9430:1 9645:1 10076:1 10291:1 10498:1 10706:1 10908:1 10961:1 11098:1 11287:1 11344:1 11472:1 11655:1 11842:1 12026:1 12223:1 12416:1 12975:1 13161:1 13333:1 13497:1 13661:1 13749:1 13826:1 13991:1 14156:1 14632:1 14793:1 14958:1 
0.7879332522750263 0.2079047660814319 73:1 238:1 571:1 744:1 1079:1 1571:1 1736:1 1897:1 2068:1 2240:1 2586:1 2769:1 2964:1 3165:1 3357:1 3419:1 3560:1 3768:1 3964:1 4164:1 4364:1 4556:1 4735:1 4778:1 4919:1 5431:1 5472:1 5837:1 6028:1 6226:1 6425:1 6622:1 6653:1 6873:1 6997:1 7342:1 7828:1 7995:1 8172:1 8352:1 8530:1 9294:1 9494:1 9690:1 10074:1 10261:1 10804:1 10979:1 11157:1 11335:1 11509:1 11690:1 11882:1 12086:1 12146:1 12288:1 12493:1 12695:1 12888:1 13079:1 13265:1 13326:1 13439:1 13614:1 13784:1 13950:1 14128:1 14186:1 14315:1 14506:1 14702:1 14891:1 
0.8711344823818546 0.3047209505197154 358:1 539:1 735:1 943:1 997:1 1136:1 1343:1 1545:1 1743:1 1934:1 2117:1 2801:1 2966:1 3127:1 3287:1 3447:1 3603:1 3634:1 3917:1 4416:1 4779:1 4960:1 5012:1 5554:1 5752:1 5945:1 6144:1 6340:1 6535:1 6599:1 6723:1 6902:1 7086:1 7471:1 7669:1 7722:1 7861:1 8068:1 8275:1 8480:1 8678:1 8870:1 8927:1 8987:1 9045:1 9210:1 9376:1 9436:1 9548:1 9721:1 9895:1 10280:1 10474:1 10674:1 10862:1 11052:1 11083:1 11431:1 11608:1 11930:1 12613:1 12797:1 13364:1 13550:1 13897:1 13961:1 14066:1 14193:1 14282:1 14435:1 14506:1 14596:1 
0.3397482569337574 0 22:1 84:1 204:1 235:1 388:1 1048:1 1209:1 1371:1 1538:1 1597:1 1711:1 1768:1 1882:1 2052:1 2225:1 2405:1 2598:1 2798:1 2993:1 3560:1 3729:1 3902:1 4227:1 4389:1 4899:1 5076:1 5135:1 5275:1 5482:1 5867:1 6054:1 6229:1 6418:1 6599:1 6637:1 6775:1 6891:1 7456:1 7634:1 7815:1 7996:1 8186:1 8387:1 8586:1 8791:1 8988:1 9177:1 9361:1 9535:1 9710:1 9886:1 10063:1 10246:1 10423:1 10601:1 10772:1 10833:1 10939:1 11115:1 11296:1 11350:1 11482:1 11585:1 11662:1 11703:1 11813:1 12170:1 13200:1 13258:1 13367:1 13398:1 13429:1 14047:1 14221:1 14395:1 14915:1 
0.537681645500741 0.04271037655431156 488:1 730:1 761:1 1609:1 1791:1 2021:1 2182:1 2545:1 2730:1 2909:1 3094:1 3641:1 3827:1 3952:1 4059:1 4202:1 4574:1 4684:1 4777:1 4974:1 5174:1 5207:1 5238:1 5961:1 6104:1 6153:1 6335:1 6511:1 6687:1 6746:1 6858:1 7024:1 7403:1 7615:1 7831:1 8048:1 8266:1 8475:1 8674:1 8866:1 9056:1 9242:1 9420:1 9600:1 9692:1 9749:1 9783:1 10104:1 10135:1 10166:1 10197:1 11658:1 11852:1 12044:1 12234:1 12415:1 12472:1 12599:1 12787:1 12974:1 13029:1 13164:1 13367:1 13572:1 13767:1 13974:1 14033:1 14178:1 14374:1 14573:1 14773:1 14971:1 
0.0798779953667593 0 126:1 298:1 469:1 631:1 794:1 957:1 1116:1 1148:1 1276:1 1940:1 2118:1 2169:1 2294:1 2325:1 2467:1 2645:1 2815:1 3357:1 3411:1 3534:1 3711:1 3883:1 4050:1 4713:1 4773:1 4876:1 4932:1 5043:1 5096:1 5211:1 5377:1 5426:1 5539:1 5870:1 6031:1 6191:1 6355:1 6524:1 7174:1 7337:1 7501:1 7670:1 7712:1 7838:1 8012:1 8069:1 8189:1 8367:1 8539:1 8711:1 8882:1 9047:1 9210:1 9367:1 9528:1 9700:1 9894:1 10103:1 10135:1 10166:1 10205:1 10236:1 10267:1 10310:1 12527:1 12701:1 12877:1 13058:1 13257:1 13461:1 13657:1 13852:1 13883:1 13914:1 14610:1 14800:1 15000:1 
0.2158261244384502 0 181:1 361:1 922:1 1106:1 1286:1 1467:1 1648:1 1743:1 1846:1 2030:1 2213:1 2388:1 2562:1 2735:1 2908:1 3083:1 3253:1 3429:1 3790:1 3976:1 4159:1 4351:1 4544:1 4606:1 4729:1 4917:1 5012:1 5075:1 5106:1 5137:1 6663:1 6859:1 7052:1 7221:1 7252:1 7451:1 7650:1 7848:1 7903:1 8041:1 8598:1 8771:1 8911:1 9460:1 9505:1 9536:1 9637:1 10320:1 10491:1 10672:1 10860:1 11056:1 11253:1 11445:1 11630:1 11780:1 11812:1 11982:1 12159:1 12339:1 12524:1 12720:1 12913:1 13102:1 13300:1 13356:1 13501:1 13693:1 13882:1 13934:1 14071:1 14248:1 14426:1 14599:1 14769:1 14929:1 
1.165747704689503 0.421897574007292 64:1 103:1 155:1 887:1 1053:1 1215:1 1374:1 1533:1 1671:1 1702:1 1888:1 2084:1 2279:1 2342:1 2478:1 2672:1 3029:1 3204:1 3259:1 3382:1 3723:1 3873:1 4048:1 4204:1 4361:1 4517:1 4673:1 4826:1 4977:1 5126:1 5583:1 5740:1 5893:1 6045:1 6192:1 6336:1 6450:1 6481:1 7261:1 7429:1 8009:1 8151:1 8584:1 8737:1 9065:1 9108:1 9578:1 9741:1 9901:1 10062:1 10224:1 10386:1 10548:1 10587:1 10697:1 10908:1 11521:1 11892:1 12477:1 12587:1 13142:1 13333:1 13701:1 13890:1 14080:1 14265:1 14449:1 14630:1 14804:1 14978:1 
0.617801658741142 0.03922011381158393 6:1 173:1 335:1 496:1 660:1 832:1 1018:1 1205:1 1265:1 1403:1 1460:1 1610:1 1816:1 2021:1 2414:1 2601:1 2790:1 2972:1 3156:1 3334:1 3400:1 3515:1 3688:1 3855:1 3915:1 4022:1 4076:1 4193:1 4899:1 5078:1 5266:1 5324:1 5456:1 5845:1 6034:1 6215:1 6246:1 6394:1 6570:1 6738:1 7083:1 7434:1 7682:1 7806:1 8002:1 8404:1 8598:1 9036:1 10830:1 10989:1 11151:1 11310:1 11469:1 11985:1 12181:1 12390:1 12442:1 12601:1 12812:1 13013:1 13209:1 13406:1 13603:1 13801:1 13997:1 14193:1 14387:1 14449:1 14515:1 14546:1 14584:1 14780:1 14966:1 
0.02065149665153456 0 677:1 819:1 960:1 1103:1 1250:1 1409:1 1588:1 1780:1 1977:1 2178:1 2381:1 2578:1 2768:1 2950:1 2993:1 3127:1 3294:1 3458:1 3619:1 3775:1 3827:1 3927:1 4055:1 4086:1 4117:1 4148:1 4239:1 4399:1 5469:1 5646:1 5823:1 6519:1 6682:1 6837:1 6989:1 7142:1 7287:1 7432:1 7570:1 8133:1 8310:1 8366:1 8507:1 8712:1 8770:1 8801:1 8832:1 8863:1 8908:1 9322:1 10078:1 10138:1 10242:1 10401:1 10555:1 10705:1 10852:1 10995:1 11134:1 11271:1 11411:1 11548:1 11685:1 12384:1 12689:1 13263:1 13392:1 13525:1 13663:1 13809:1 13957:1 14113:1 14279:1 14453:1 14625:1 14793:1 14965:1 
0.3856321490006943 0 14:1 76:1 211:1 416:1 618:1 813:1 1035:1 1176:1 1255:1 1452:1 1635:1 2190:1 2475:1 2781:1 3075:1 3622:1 5014:1 5152:1 5293:1 5437:1 5586:1 5750:1 5925:1 6111:1 6300:1 6495:1 6679:1 6828:1 7023:1 7191:1 7222:1 7328:1 7359:1 7519:1 7688:1 7857:1 8038:1 8401:1 8582:1 8768:1 8948:1 8989:1 9124:1 9305:1 9479:1 9544:1 9649:1 9815:1 9979:1 10137:1 10303:1 10468:1 10639:1 10820:1 10996:1 11183:1 11368:1 11562:1 11752:1 11933:1 12106:1 12267:1 12425:1 12466:1 12580:1 12634:1 12733:1 13193:1 13346:1 13510:1 13845:1 14019:1 14177:1 14356:1 14519:1 14725:1 14843:1 
0.2346490985278642 0 167:1 987:1 1054:1 1234:1 2137:1 2298:1 2457:1 2618:1 2778:1 2939:1 3272:1 3446:1 3641:1 3841:1 3880:1 4040:1 4248:1 4446:1 4634:1 4676:1 4823:1 4888:1 4995:1 5168:1 5331:1 5504:1 5682:1 5860:1 6220:1 6409:1 6600:1 6783:1 6964:1 7142:1 7317:1 7363:1 7488:1 7660:1 7834:1 8182:1 8345:1 8546:1 8718:1 8887:1 9049:1 9347:1 9690:1 9857:1 9911:1 10017:1 10354:1 10525:1 10695:1 10862:1 11033:1 11695:1 11860:1 12025:1 12074:1 12189:1 12348:1 12506:1 12664:1 12713:1 12822:1 12872:1 12903:1 13547:1 13916:1 14151:1 14609:1 14768:1 14826:1 14928:1 14982:1 
0.6244331891653288 0.1928760007485429 156:1 345:1 534:1 741:1 957:1 1179:1 1388:1 1597:1 1801:1 1993:1 2186:1 2368:1 2548:1 2725:1 2900:1 3087:1 3283:1 3482:1 3690:1 3896:1 4103:1 4312:1 4371:1 4503:1 4698:1 4889:1 5074:1 5251:1 5429:1 5599:1 5762:1 5923:1 6085:1 6241:1 6851:1 6969:1 7000:1 7053:1 7150:1 7440:1 7590:1 7735:1 7884:1 7956:1 8029:1 8750:1 8890:1 9033:1 9176:1 9321:1 9475:1 9634:1 9830:1 9963:1 10011:1 10068:1 10099:1 10142:1 11326:1 11854:1 12035:1 12325:1 12356:1 12412:1 13091:1 13293:1 13859:1 14036:1 14206:1 14371:1 14533:1 14688:1 14842:1 14992:1 
0.1649370242447623 0 378:1 426:1 596:1 760:1 927:1 1095:1 1214:1 1262:1 1769:1 2105:1 2765:1 3110:1 3293:1 3839:1 4001:1 4154:1 4206:1 4312:1 4919:1 5069:1 5218:1 5369:1 5526:1 5690:1 5860:1 6023:1 6187:1 6351:1 6516:1 6677:1 6841:1 7014:1 7541:1 7696:1 7730:1 7938:1 8133:1 8317:1 8509:1 8691:1 8873:1 9049:1 9218:1 9390:1 9560:1 9730:1 9919:1 10131:1 10329:1 10514:1 10689:1 10863:1 11041:1 11212:1 11378:1 11534:1 11688:1 11846:1 12018:1 12210:1 12404:1 12594:1 12793:1 12939:1 13024:1 13129:1 13165:1 13352:1 13546:1 13739:1 13925:1 13989:1 14309:1 14505:1 14694:1 14880:1 
0.6992822955816849 0.07783057349929398 173:1 367:1 563:1 761:1 967:1 1020:1 1187:1 1611:1 1683:1 1821:1 1910:1 2470:1 2687:1 2902:1 3096:1 3285:1 3460:1 3637:1 3847:1 4059:1 4280:1 4499:1 4719:1 4927:1 5136:1 5340:1 5403:1 5529:1 5722:1 5925:1 6143:1 6354:1 6577:1 6811:1 7037:1 7247:1 7461:1 7681:1 7899:1 8112:1 8336:1 8557:1 8779:1 8995:1 9193:1 9390:1 9582:1 9937:1 10113:1 10292:1 10485:1 10689:1 10883:1 11063:1 11245:1 11449:1 11665:1 11879:1 12072:1 12254:1 12438:1 12640:1 12857:1 13073:1 13276:1 13468:1 13659:1 13850:1 14038:1 14226:1 14427:1 14659:1 14885:1 
0.428689629089079 0 96:1 301:1 503:1 700:1 885:1 1074:1 1265:1 1469:1 1673:1 1869:1 2058:1 2232:1 2416:1 2608:1 2796:1 2984:1 3184:1 3394:1 3590:1 3795:1 3865:1 3896:1 4002:1 4201:1 4390:1 4567:1 4633:1 5612:1 5846:1 6066:1 6269:1 6477:1 6682:1 6731:1 6877:1 7078:1 7277:1 7489:1 7695:1 7911:1 8133:1 8355:1 8568:1 8784:1 8988:1 9186:1 9376:1 9580:1 9797:1 10002:1 10205:1 10410:1 10618:1 10814:1 11013:1 11212:1 11412:1 11604:1 11795:1 11991:1 12207:1 12439:1 12660:1 12717:1 12884:1 13096:1 13294:1 13476:1 13655:1 14181:1 14378:1 14611:1 14669:1 14853:1 
0.1343541993517261 0 91:1 309:1 523:1 727:1 916:1 1097:1 1280:1 1461:1 1640:1 1671:1 1763:1 1838:1 2043:1 2251:1 2451:1 2651:1 2858:1 3076:1 3306:1 3517:1 3725:1 3938:1 4151:1 4362:1 4569:1 4773:1 5002:1 5224:1 5452:1 5686:1 5914:1 6135:1 6355:1 6419:1 6567:1 6633:1 6775:1 6982:1 7192:1 7398:1 7608:1 7824:1 8038:1 8247:1 8462:1 8681:1 8905:1 9129:1 9188:1 9339:1 9544:1 9746:1 9951:1 10147:1 10346:1 10541:1 10735:1 10925:1 11114:1 11289:1 11468:1 11673:1 11884:1 12088:1 12302:1 12525:1 12756:1 12980:1 13041:1 13184:1 13379:1 13575:1 13774:1 13969:1 14161:1 14365:1 14577:1 14775:1 14977:1 
0.1029811703141762 0 77:1 294:1 508:1 726:1 938:1 1139:1 1327:1 1521:1 1725:1 1952:1 2183:1 2399:1 2612:1 2818:1 2879:1 3025:1 3235:1 3439:1 3638:1 3861:1 4104:1 4347:1 4407:1 4572:1 4792:1 5009:1 5230:1 5451:1 5660:1 5868:1 6083:1 6300:1 6496:1 6687:1 6878:1 7073:1 7275:1 7474:1 7674:1 7885:1 8109:1 8330:1 8549:1 8769:1 8973:1 9168:1 9368:1 9566:1 9757:1 9953:1 10157:1 10352:1 10544:1 10745:1 10944:1 11003:1 11127:1 11310:1 11481:1 11647:1 11707:1 11810:1 12290:1 12455:1 12633:1 12826:1 13018:1 13062:1 13205:1 13394:1 13582:1 13772:1 13956:1 14146:1 14354:1 14579:1 14800:1 
0.05522208074558716 0 28:1 216:1 393:1 563:1 735:1 915:1 1102:1 1289:1 1479:1 1679:1 1877:1 2070:1 2265:1 2469:1 2677:1 2882:1 3077:1 3276:1 3476:1 3672:1 3859:1 4049:1 4246:1 4440:1 4633:1 4829:1 5027:1 5234:1 5429:1 5623:1 5819:1 6020:1 6222:1 6413:1 6602:1 6796:1 6996:1 7201:1 7401:1 7617:1 7833:1 8037:1 8227:1 8418:1 8608:1 8807:1 9002:1 9192:1 9396:1 9606:1 9817:1 10014:1 10221:1 10424:1 10613:1 10791:1 10967:1 11143:1 11324:1 11497:1 11671:1 11855:1 12056:1 12261:1 12467:1 12659:1 12849:1 13046:1 13252:1 13468:1 13676:1 13879:1 14095:1 14315:1 14527:1 14721:1 14913:1 
0.2574942637533147 0 172:1 384:1 585:1 789:1 996:1 1202:1 1406:1 1602:1 1802:1 2011:1 2229:1 2441:1 2637:1 2833:1 3033:1 3241:1 3444:1 3639:1 3840:1 4043:1 4252:1 4447:1 4644:1 4846:1 5049:1 5252:1 5444:1 5646:1 5848:1 6066:1 6284:1 6483:1 6683:1 6882:1 7085:1 7293:1 7489:1 7687:1 7893:1 8106:1 8327:1 8526:1 8720:1 8918:1 9129:1 9338:1 9545:1 9762:1 9982:1 10201:1 10267:1 10406:1 10610:1 10812:1 11017:1 11218:1 11420:1 11628:1 11828:1 12015:1 12201:1 12378:1 12547:1 12718:1 12895:1 13072:1 13258:1 13461:1 13674:1 13883:1 14076:1 14268:1 14458:1 14653:1 14844:1 
0.2688276966031335 0 163:1 390:1 614:1 826:1 891:1 1024:1 1213:1 1404:1 1611:1 1832:1 2042:1 2266:1 2502:1 2739:1 2966:1 3190:1 3409:1 3618:1 3814:1 4011:1 4213:1 4425:1 4635:1 4842:1 5059:1 5292:1 5521:1 5579:1 5733:1 5947:1 6159:1 6350:1 6534:1 6718:1 6903:1 7081:1 7262:1 7455:1 7661:1 7866:1 8073:1 8294:1 8518:1 8720:1 8916:1 9108:1 9299:1 9479:1 9657:1 9848:1 10059:1 10280:1 10481:1 10681:1 10868:1 11047:1 11217:1 11265:1 11390:1 11563:1 11677:1 11741:1 12447:1 12632:1 12814:1 13001:1 13189:1 13377:1 13561:1 13758:1 13971:1 14193:1 14411:1 14478:1 14612:1 14648:1 14817:1 
0.009591819328806733 0 121:1 347:1 567:1 793:1 1023:1 1245:1 1450:1 1643:1 1833:1 2026:1 2218:1 2404:1 2598:1 2783:1 2983:1 3200:1 3427:1 3638:1 3854:1 4070:1 4290:1 4506:1 4706:1 4898:1 5082:1 5261:1 5436:1 5624:1 5836:1 6062:1 6273:1 6484:1 6686:1 6876:1 7060:1 7249:1 7439:1 7623:1 7816:1 8017:1 8227:1 8426:1 8625:1 8834:1 9049:1 9266:1 9473:1 9675:1 9880:1 10074:1 10275:1 10488:1 10708:1 10919:1 10976:1 11138:1 11356:1 11556:1 11762:1 11967:1 12173:1 12385:1 12583:1 12791:1 13005:1 13214:1 13413:1 13613:1 13814:1 14007:1 14199:1 14395:1 14597:1 14792:1 14910:1 14941:1 14972:1 
0.744333080843408 0.2482341973103316 3:1 34:1 65:1 1219:1 1397:1 1574:1 1744:1 1914:1 2087:1 2260:1 2429:1 2595:1 2762:1 2929:1 3096:1 3259:1 3423:1 3590:1 3766:1 3940:1 4114:1 4292:1 4476:1 4667:1 4858:1 5054:1 5251:1 5440:1 5629:1 5817:1 6001:1 6178:1 6356:1 6491:1 6535:1 6589:1 6707:1 6880:1 7047:1 7518:1 7818:1 8089:1 8663:1 9065:1 9195:1 9325:1 9453:1 9829:1 9953:1 10078:1 10202:1 10451:1 10574:1 11085:1 11655:1 11689:1 11725:1 11758:1 11835:1 12031:1 12354:1 12434:1 12516:1 13593:1 13749:1 13918:1 14242:1 14342:1 14396:1 14710:1 14862:1 
0.1291868077557711 0 5:1 184:1 368:1 545:1 726:1 913:1 1097:1 1277:1 1472:1 1676:1 1881:1 2075:1 2265:1 2461:1 2660:1 2853:1 3052:1 3254:1 3452:1 3652:1 3861:1 4064:1 4273:1 4483:1 4685:1 4891:1 5096:1 5293:1 5492:1 5689:1 5877:1 6257:1 6452:1 6631:1 6802:1 6964:1 7131:1 7318:1 7516:1 7708:1 7895:1 8083:1 8271:1 8456:1 8510:1 8630:1 8808:1 8995:1 9204:1 9439:1 9676:1 9914:1 10144:1 10203:1 10367:1 10420:1 10572:1 10758:1 10939:1 11123:1 11332:1 11566:1 11795:1 12040:1 12286:1 12509:1 12722:1 12931:1 13128:1 13180:1 13309:1 13487:1 13670:1 13865:1 14070:1 14280:1 14498:1 14720:1 14930:1 
0.7207746777373355 0.02191158237026763 81:1 248:1 418:1 470:1 581:1 758:1 933:1 1110:1 1275:1 1436:1 1595:1 1752:1 2340:1 2775:1 3021:1 3131:1 3534:1 3596:1 3720:1 4439:1 4603:1 4765:1 4922:1 5079:1 5235:1 5394:1 5869:1 6036:1 6387:1 6574:1 6767:1 6819:1 6960:1 7144:1 7331:1 7521:1 7699:1 7877:1 7945:1 8052:1 8222:1 8266:1 8903:1 9393:1 9555:1 9714:1 9875:1 10026:1 10104:1 10135:1 10180:1 11110:1 11259:1 11407:1 11554:1 11702:1 11849:1 12164:1 12349:1 12547:1 12737:1 12923:1 13113:1 13297:1 13481:1 13668:1 13858:1 13910:1 14038:1 14220:1 14408:1 14593:1 14781:1 14975:1 
0.1223050366559303 0 179:1 385:1 587:1 779:1 973:1 1164:1 1347:1 1538:1 1738:1 1952:1 2150:1 2353:1 2564:1 2771:1 2962:1 3144:1 3319:1 3491:1 3663:1 3844:1 4039:1 4094:1 4230:1 4427:1 4641:1 4859:1 5057:1 5245:1 5432:1 5616:1 5796:1 5977:1 6164:1 6365:1 6571:1 6780:1 7002:1 7228:1 7447:1 7504:1 7649:1 7855:1 8062:1 8272:1 8479:1 8674:1 8869:1 9077:1 9302:1 9528:1 9737:1 9952:1 10172:1 10390:1 10599:1 10796:1 10990:1 11193:1 11408:1 11629:1 11844:1 12065:1 12283:1 12486:1 12684:1 12874:1 13064:1 13262:1 13469:1 13663:1 13857:1 14053:1 14248:1 14446:1 14646:1 14859:1 
0.257814172471466 0 79:1 306:1 524:1 721:1 909:1 1092:1 1282:1 1480:1 1671:1 1869:1 2079:1 2302:1 2527:1 2754:1 2975:1 3034:1 3177:1 3371:1 3565:1 3765:1 3972:1 4175:1 4377:1 4596:1 4824:1 5053:1 5263:1 5460:1 5656:1 5858:1 6066:1 6282:1 6484:1 6695:1 6911:1 7128:1 7329:1 7527:1 7725:1 7929:1 8142:1 8344:1 8535:1 8729:1 8916:1 9117:1 9330:1 9546:1 9766:1 9983:1 10194:1 10383:1 10565:1 10745:1 10935:1 11143:1 11342:1 11532:1 11736:1 11951:1 12176:1 12388:1 12587:1 12780:1 12965:1 13149:1 13327:1 13509:1 13703:1 13919:1 14143:1 14361:1 14563:1 14767:1 14973:1 
0.4323920782885188 0 182:1 389:1 589:1 777:1 958:1 1148:1 1346:1 1558:1 1770:1 1968:1 2165:1 2361:1 2549:1 2742:1 2925:1 3121:1 3310:1 3508:1 3700:1 3893:1 4106:1 4329:1 4555:1 4777:1 4976:1 5173:1 5369:1 5558:1 5745:1 5923:1 6096:1 6265:1 6436:1 6605:1 6776:1 6960:1 7166:1 7383:1 7579:1 7772:1 7971:1 8171:1 8370:1 8552:1 8729:1 8908:1 9103:1 9317:1 9536:1 9749:1 9957:1 10172:1 10387:1 10607:1 10812:1 11020:1 11231:1 11446:1 11663:1 11870:1 12077:1 12292:1 12505:1 12717:1 12909:1 13099:1 13291:1 13492:1 13696:1 13889:1 14093:1 14313:1 14542:1 14758:1 14973:1 
0.1244497035160623 0 118:1 326:1 516:1 697:1 880:1 1060:1 1246:1 1450:1 1676:1 1909:1 2136:1 2198:1 2353:1 2565:1 2767:1 2952:1 3134:1 3324:1 3510:1 3703:1 3904:1 4115:1 4320:1 4510:1 4702:1 4899:1 5098:1 5298:1 5494:1 5697:1 5901:1 6102:1 6300:1 6496:1 6696:1 6894:1 7085:1 7282:1 7490:1 7697:1 7896:1 8103:1 8312:1 8524:1 8725:1 8927:1 9131:1 9336:1 9534:1 9733:1 9939:1 10153:1 10370:1 10576:1 10778:1 10979:1 11180:1 11373:1 11563:1 11761:1 11967:1 12164:1 12359:1 12562:1 12768:1 12967:1 13156:1 13348:1 13541:1 13735:1 13922:1 14110:1 14304:1 14507:1 14716:1 14917:1 
0.3798794061673216 0 114:1 309:1 513:1 726:1 940:1 1155:1 1355:1 1550:1 1744:1 1943:1 2143:1 2334:1 2530:1 2742:1 2967:1 3197:1 3413:1 3623:1 3837:1 4052:1 4267:1 4473:1 4675:1 4888:1 5110:1 5332:1 5537:1 5744:1 5945:1 6145:1 6206:1 6326:1 6509:1 6697:1 6900:1 7106:1 7323:1 7539:1 7744:1 7947:1 8153:1 8350:1 8537:1 8723:1 8909:1 9092:1 9278:1 9465:1 9651:1 9842:1 10042:1 10239:1 10444:1 10652:1 10856:1 11045:1 11225:1 11404:1 11584:1 11758:1 11931:1 12109:1 12296:1 12499:1 12717:1 12924:1 13139:1 13364:1 13581:1 13778:1 13968:1 14153:1 14337:1 14513:1 14697:1 14885:1 
0.02503140755928786 0 70:1 256:1 454:1 666:1 874:1 1074:1 1283:1 1503:1 1722:1 1946:1 2010:1 2158:1 2694:1 2755:1 2885:1 3098:1 3330:1 3566:1 3794:1 4012:1 4217:1 4416:1 4613:1 4812:1 4875:1 5016:1 5218:1 5430:1 5645:1 5860:1 6068:1 6286:1 6501:1 6702:1 6893:1 7088:1 7283:1 7479:1 7681:1 7876:1 8073:1 8267:1 8317:1 8454:1 8652:1 8854:1 9054:1 9251:1 9445:1 9629:1 9819:1 10005:1 10200:1 10400:1 10604:1 10799:1 10991:1 11186:1 11388:1 11587:1 11784:1 11994:1 12206:1 12411:1 12625:1 12848:1 13070:1 13289:1 13353:1 13499:1 13711:1 13924:1 14134:1 14340:1 14539:1 14725:1 14910:1 
0.01915878162860449 0 193:1 403:1 614:1 826:1 1035:1 1251:1 1453:1 1644:1 1835:1 2027:1 2074:1 2215:1 2390:1 2565:1 2744:1 2801:1 2941:1 3150:1 3357:1 3570:1 3792:1 3854:1 4022:1 4252:1 4467:1 4679:1 4889:1 5093:1 5295:1 5496:1 5693:1 5909:1 6111:1 6330:1 6386:1 6557:1 6791:1 7025:1 7246:1 7461:1 7525:1 7670:1 7727:1 7874:1 8073:1 8269:1 8855:1 9072:1 9296:1 9516:1 9745:1 9974:1 10026:1 10197:1 10409:1 10611:1 10812:1 11015:1 11218:1 11428:1 11647:1 11872:1 12094:1 12313:1 12543:1 12595:1 12776:1 13006:1 13225:1 13440:1 13647:1 14055:1 14258:1 14408:1 14441:1 14498:1 
0.03109868671662624 0 8:1 186:1 358:1 911:1 1089:1 1265:1 1432:1 1595:1 1760:1 1931:1 2118:1 2316:1 2519:1 2719:1 2925:1 3132:1 3336:1 3538:1 3736:1 3936:1 4151:1 4365:1 4589:1 4811:1 5017:1 5224:1 5440:1 5668:1 5900:1 6125:1 6351:1 6415:1 6566:1 6761:1 6951:1 7000:1 7136:1 7199:1 7311:1 7434:1 8044:1 8243:1 8450:1 8647:1 8836:1 8895:1 9015:1 9186:1 9351:1 9410:1 9515:1 9675:1 9832:1 9992:1 10159:1 10335:1 10517:1 10700:1 10894:1 11097:1 11311:1 11521:1 11735:1 11954:1 12174:1 12383:1 12593:1 12805:1 13009:1 13127:1 13864:1 14071:1 14264:1 14329:1 14463:1 14664:1 14864:1 
0.2541587474529331 0 50:1 242:1 438:1 651:1 879:1 1100:1 1323:1 1535:1 1736:1 1798:1 1942:1 2153:1 2360:1 2568:1 2763:1 2958:1 3154:1 3364:1 3587:1 3738:1 3783:1 3814:1 4033:1 4096:1 4267:1 4715:1 4923:1 4983:1 5120:1 5179:1 5304:1 5361:1 5392:1 5483:1 6259:1 6320:1 6378:1 6509:1 6756:1 6964:1 7002:1 7034:1 7065:1 7096:1 7211:1 7421:1 7602:1 7633:1 7684:1 7746:1 7818:1 7993:1 8032:1 8381:1 8931:1 9850:1 9892:1 11438:1 11594:1 11801:1 11860:1 11891:1 12155:1 12358:1 12433:1 12491:1 12536:1 12622:1 12653:1 13137:1 13354:1 14568:1 14694:1 14819:1 14945:1 
1.1005701335858 0.201725569992518 70:1 257:1 438:1 632:1 833:1 1027:1 1239:1 1454:1 1650:1 1860:1 2075:1 2276:1 2491:1 2702:1 2904:1 3119:1 3333:1 3555:1 3783:1 4001:1 4216:1 4434:1 4646:1 4854:1 5069:1 5305:1 5534:1 5751:1 5811:1 5968:1 6187:1 6395:1 6591:1 6774:1 6942:1 7111:1 7211:1 7306:1 8132:1 8173:1 8256:1 8410:1 9394:1 9611:1 9843:1 10069:1 10291:1 10379:1 10519:1 10745:1 10959:1 11174:1 11234:1 11389:1 11599:1 11797:1 12002:1 12066:1 12215:1 12422:1 12610:1 12803:1 12999:1 13195:1 13387:1 13588:1 13801:1 14011:1 14232:1 14450:1 14653:1 14852:1 
0.2306462060051628 0 49:1 237:1 296:1 427:1 631:1 835:1 1051:1 1281:1 1513:1 1724:1 1788:1 1936:1 2156:1 2381:1 2606:1 2668:1 2831:1 2894:1 3068:1 3304:1 3539:1 3767:1 4003:1 4237:1 4452:1 4672:1 4894:1 5106:1 5330:1 5567:1 5801:1 6027:1 6267:1 6512:1 6734:1 6960:1 7184:1 7398:1 7602:1 7819:1 8038:1 8252:1 8481:1 8722:1 8960:1 9185:1 9415:1 9648:1 9868:1 10081:1 10308:1 10545:1 10606:1 10785:1 11004:1 11225:1 11433:1 11641:1 11866:1 11930:1 12094:1 12316:1 12382:1 12555:1 12796:1 13021:1 13242:1 13467:1 13535:1 13684:1 13904:1 14131:1 14360:1 14580:1 14791:1 
0.4092974945598644 0 30:1 202:1 386:1 570:1 775:1 995:1 1222:1 1435:1 1649:1 1866:1 2073:1 2268:1 2470:1 2681:1 2882:1 3100:1 3333:1 3556:1 3788:1 4020:1 4233:1 4293:1 4446:1 4664:1 4876:1 5076:1 5287:1 5355:1 5502:1 5714:1 5917:1 6120:1 6320:1 6525:1 6736:1 6949:1 7153:1 7360:1 7566:1 7764:1 7961:1 8169:1 8380:1 8599:1 8839:1 9076:1 9312:1 9544:1 9759:1 9820:1 9986:1 10212:1 10424:1 10639:1 10859:1 11080:1 11294:1 11511:1 11726:1 11927:1 12142:1 12202:1 12368:1 12585:1 12807:1 13030:1 13235:1 13439:1 13651:1 13864:1 14078:1 14289:1 14495:1 14702:1 14904:1 
0.24580264132377 0 94:1 279:1 465:1 663:1 851:1 1033:1 1208:1 1379:1 1553:1 1726:1 1908:1 2097:1 2296:1 2502:1 2723:1 2955:1 3016:1 3181:1 3390:1 3590:1 3795:1 4010:1 4233:1 4456:1 4685:1 4902:1 5117:1 5332:1 5541:1 5734:1 5915:1 6086:1 6254:1 6774:1 7015:1 7079:1 7272:1 7526:1 7771:1 8022:1 8269:1 8334:1 8506:1 8727:1 8932:1 9125:1 9310:1 9512:1 9573:1 9734:1 9797:1 9959:1 10022:1 10189:1 10411:1 10639:1 10858:1 11062:1 11277:1 11498:1 11717:1 11939:1 12150:1 12377:1 12610:1 12857:1 13090:1 13312:1 13531:1 13738:1 13933:1 14118:1 14307:1 14505:1 14720:1 14944:1 
0.2780818378297043 0 36:1 261:1 478:1 544:1 692:1 754:1 917:1 980:1 1146:1 1368:1 1601:1 1826:1 2047:1 2261:1 2478:1 2692:1 2918:1 2985:1 3134:1 3350:1 3552:1 3740:1 3932:1 4134:1 4355:1 4568:1 4782:1 5007:1 5230:1 5445:1 5658:1 5867:1 5929:1 6061:1 6255:1 6459:1 6686:1 6922:1 7146:1 7367:1 7584:1 7650:1 7794:1 7993:1 8199:1 8408:1 8625:1 8834:1 9054:1 9273:1 9498:1 9712:1 9921:1 10134:1 10341:1 10550:1 10768:1 10991:1 11204:1 11416:1 11634:1 11859:1 12072:1 12294:1 12514:1 12723:1 12918:1 13110:1 13293:1 13469:1 13668:1 13897:1 14126:1 14368:1 14429:1 14611:1 14842:1 
0.1117882865847853 0 54:1 275:1 492:1 712:1 923:1 1112:1 1288:1 1464:1 1648:1 1852:1 2059:1 2271:1 2503:1 2738:1 2964:1 3176:1 3390:1 3603:1 3805:1 3996:1 4053:1 4197:1 4403:1 4616:1 4834:1 5053:1 5282:1 5501:1 5725:1 5939:1 6140:1 6340:1 6540:1 6603:1 6747:1 6945:1 7142:1 7352:1 7578:1 7801:1 8011:1 8227:1 8445:1 8510:1 8665:1 8871:1 9077:1 9292:1 9510:1 9715:1 9776:1 9929:1 9991:1 10155:1 10392:1 10622:1 10845:1 11048:1 11235:1 11429:1 11652:1 11872:1 12107:1 12355:1 12598:1 12823:1 13049:1 13272:1 13490:1 13699:1 13915:1 14139:1 14373:1 14597:1 14832:1 
0.4889525227746746 0 74:1 299:1 360:1 527:1 592:1 762:1 995:1 1220:1 1449:1 1688:1 1923:1 2150:1 2367:1 2586:1 2811:1 3035:1 3247:1 3471:1 3698:1 3927:1 4147:1 4374:1 4606:1 4837:1 5052:1 5273:1 5502:1 5736:1 5951:1 6169:1 6390:1 6609:1 6674:1 6827:1 7057:1 7290:1 7505:1 7568:1 7720:1 7944:1 8172:1 8391:1 8611:1 8836:1 9062:1 9273:1 9479:1 9687:1 9892:1 10092:1 10293:1 10483:1 10673:1 10883:1 11094:1 11324:1 11564:1 11795:1 11862:1 12024:1 12092:1 12245:1 12451:1 12661:1 12874:1 13081:1 13298:1 13521:1 13743:1 13960:1 14027:1 14184:1 14400:1 14604:1 14817:1 
0.2818290956286443 0.002826028022162896 167:1 404:1 453:1 642:1 868:1 1100:1 1343:1 1590:1 1827:1 2050:1 2277:1 2509:1 2741:1 2953:1 3168:1 3390:1 3623:1 3833:1 4032:1 4239:1 4439:1 4643:1 4866:1 5102:1 5338:1 5551:1 5765:1 5990:1 6224:1 6449:1 6681:1 6923:1 7155:1 7361:1 7425:1 7560:1 7757:1 8161:1 8382:1 8592:1 8806:1 8871:1 9031:1 9245:1 9443:1 9629:1 9685:1 9821:1 10041:1 10277:1 10506:1 10734:1 10969:1 11033:1 11208:1 11438:1 11661:1 11887:1 12112:1 12322:1 12549:1 12782:1 13013:1 13241:1 13479:1 13704:1 13920:1 13981:1 14137:1 14208:1 14354:1 14572:1 14776:1 14988:1 
0.2156366321730898 0 50:1 215:1 440:1 664:1 909:1 1161:1 1409:1 1645:1 1884:1 2112:1 2332:1 2557:1 2617:1 2782:1 2997:1 3203:1 3415:1 3637:1 3866:1 4097:1 4319:1 4546:1 4777:1 5006:1 5230:1 5465:1 5708:1 5945:1 6169:1 6389:1 6452:1 6618:1 6854:1 7081:1 7313:1 7546:1 7784:1 8012:1 8077:1 8233:1 8460:1 8678:1 8879:1 9084:1 9274:1 9462:1 9680:1 9908:1 10125:1 10349:1 10580:1 10813:1 11032:1 11096:1 11238:1 11286:1 11439:1 11625:1 11807:1 11996:1 12178:1 12374:1 12577:1 12992:1 13209:1 13425:1 13631:1 13691:1 13845:1 14049:1 14241:1 14435:1 14502:1 14628:1 14820:1 
0.3463832827901932 0.1059633157122479 19:1 232:1 433:1 629:1 820:1 1012:1 1228:1 1482:1 1735:1 1974:1 2226:1 2288:1 2488:1 2550:1 2747:1 2982:1 3212:1 3276:1 3436:1 3493:1 3647:1 3844:1 4045:1 4261:1 4492:1 4712:1 4930:1 5152:1 5377:1 5598:1 5808:1 6024:1 6242:1 6459:1 6664:1 6877:1 7096:1 7312:1 7540:1 7763:1 7973:1 8036:1 8173:1 8240:1 8373:1 8569:1 8780:1 9017:1 9248:1 9461:1 9682:1 9910:1 10136:1 10348:1 10547:1 10748:1 10959:1 11182:1 11402:1 11635:1 11891:1 12137:1 12358:1 12555:1 12751:1 12954:1 13147:1 13352:1 13574:1 13793:1 14003:1 14225:1 14453:1 14673:1 14870:1 
0.05897313502888547 0.0608647301552586 71:1 271:1 467:1 683:1 914:1 978:1 1139:1 1370:1 1609:1 1847:1 2063:1 2284:1 2494:1 2713:1 2936:1 3162:1 3393:1 3625:1 3851:1 4084:1 4322:1 4546:1 4780:1 4840:1 5019:1 5080:1 5251:1 5477:1 5700:1 5922:1 6137:1 6197:1 6346:1 6551:1 6771:1 6999:1 7229:1 7456:1 7526:1 7691:1 7910:1 8120:1 8323:1 8530:1 8738:1 8946:1 9146:1 9339:1 9546:1 9749:1 9960:1 10183:1 10410:1 10616:1 10821:1 11027:1 11246:1 11461:1 11663:1 11870:1 12067:1 12256:1 12320:1 12462:1 12689:1 12922:1 13138:1 13342:1 13535:1 13739:1 13962:1 14177:1 14380:1 14589:1 14811:1 
0.1377411812808279 0 37:1 251:1 446:1 632:1 818:1 879:1 1028:1 1089:1 1272:1 1501:1 1561:1 1749:1 1986:1 2228:1 2458:1 3089:1 3484:1 3693:1 4120:1 4364:1 4434:1 4609:1 4848:1 5076:1 5305:1 5540:1 5771:1 5994:1 6206:1 6270:1 6421:1 6488:1 6635:1 6701:1 6855:1 7060:1 7264:1 7329:1 7476:1 7690:1 7898:1 8106:1 8323:1 8551:1 8770:1 8976:1 9184:1 9247:1 9396:1 9609:1 9811:1 10012:1 10073:1 10225:1 10449:1 10668:1 10872:1 11073:1 11269:1 11460:1 11656:1 11724:1 11860:1 12074:1 12281:1 12502:1 12737:1 12976:1 13207:1 13419:1 13624:1 13832:1 14051:1 14268:1 14471:1 14678:1 14895:1 
0.03952163430156426 0 128:1 364:1 585:1 807:1 875:1 1030:1 1095:1 1248:1 1452:1 1659:1 1866:1 2074:1 2273:1 2472:1 2681:1 2903:1 3127:1 3334:1 3541:1 3607:1 3752:1 3964:1 4175:1 4378:1 4584:1 4797:1 5005:1 5206:1 5273:1 5414:1 5619:1 6404:1 6470:1 6545:1 6602:1 6672:1 6749:1 6806:1 6881:1 6960:1 7162:1 7853:1 8044:1 8229:1 8421:1 8620:1 8838:1 9067:1 9303:1 9540:1 9603:1 9784:1 10021:1 10263:1 10322:1 10505:1 10737:1 10793:1 10972:1 11196:1 11409:1 11625:1 12267:1 12492:1 12727:1 12966:1 13188:1 13251:1 13402:1 13615:1 13829:1 14033:1 14096:1 14239:1 14446:1 14654:1 14854:1 
0.2177557585376557 0 58:1 274:1 500:1 732:1 953:1 1166:1 1384:1 1600:1 1821:1 2030:1 2236:1 2445:1 2652:1 2843:1 3038:1 3239:1 3441:1 3640:1 3855:1 4082:1 4305:1 4512:1 4718:1 4925:1 5134:1 5332:1 5529:1 5742:1 5951:1 6150:1 6366:1 6597:1 6833:1 7055:1 7277:1 7499:1 7720:1 7922:1 8125:1 8331:1 8544:1 8751:1 8965:1 9191:1 9413:1 9630:1 9840:1 10058:1 10126:1 10286:1 10506:1 10703:1 10766:1 10911:1 11118:1 11318:1 11530:1 11749:1 11960:1 12152:1 12343:1 12531:1 12576:1 12607:1 12710:1 12892:1 13072:1 13249:1 13423:1 13604:1 13800:1 14004:1 14215:1 14433:1 14661:1 14892:1 
0.06542206810000545 0 147:1 344:1 546:1 610:1 767:1 1003:1 1223:1 1444:1 1667:1 1734:1 1886:1 2088:1 2297:1 2503:1 2703:1 2894:1 3087:1 3296:1 3517:1 3745:1 3957:1 4173:1 4398:1 4626:1 4843:1 5045:1 5239:1 5293:1 5427:1 5602:1 5771:1 5941:1 6310:1 6533:1 6776:1 7010:1 7237:1 7299:1 7470:1 7698:1 7910:1 8107:1 8167:1 8305:1 8502:1 8695:1 8885:1 9103:1 9358:1 9613:1 9670:1 9858:1 10075:1 10273:1 10469:1 10671:1 10879:1 11090:1 11293:1 11494:1 11703:1 11915:1 12121:1 12336:1 12562:1 12782:1 12989:1 13203:1 13433:1 13665:1 13881:1 14091:1 14306:1 14526:1 14749:1 14960:1 
0.4571194929572052 0 139:1 364:1 600:1 840:1 1070:1 1281:1 1489:1 1696:1 1899:1 2088:1 2282:1 2480:1 2693:1 2908:1 3126:1 3349:1 3577:1 3786:1 3999:1 4225:1 4289:1 4452:1 4519:1 4664:1 4723:1 4875:1 5084:1 5292:1 5490:1 5687:1 5890:1 6107:1 6337:1 6555:1 6774:1 7006:1 7066:1 7236:1 7460:1 7671:1 7887:1 8109:1 8175:1 8331:1 8543:1 8762:1 8984:1 9201:1 9399:1 9598:1 9796:1 10000:1 10201:1 10415:1 10642:1 10862:1 11065:1 11267:1 11475:1 11690:1 11905:1 12107:1 12307:1 12517:1 12738:1 12961:1 13166:1 13364:1 13569:1 13776:1 13978:1 14178:1 14387:1 14607:1 14825:1 
